{"learner":{"attributes":{"scikit_learn":"{\"_estimator_type\": \"classifier\"}"},"feature_names":["TenureMonths","MonthlyCharges","SupportCalls","ContractType_encoded","IsLongContract","Revenue","SupportCallsPerMonth"],"feature_types":["int","float","int","int","int","float","float"],"gradient_booster":{"model":{"gbtree_model_param":{"num_parallel_tree":"1","num_trees":"100"},"iteration_indptr":[0,1,2,3,4,5,6,7,8,9,10,11,12,13,14,15,16,17,18,19,20,21,22,23,24,25,26,27,28,29,30,31,32,33,34,35,36,37,38,39,40,41,42,43,44,45,46,47,48,49,50,51,52,53,54,55,56,57,58,59,60,61,62,63,64,65,66,67,68,69,70,71,72,73,74,75,76,77,78,79,80,81,82,83,84,85,86,87,88,89,90,91,92,93,94,95,96,97,98,99,100],"tree_info":[0,0,0,0,0,0,0,0,0,0,0,0,0,0,0,0,0,0,0,0,0,0,0,0,0,0,0,0,0,0,0,0,0,0,0,0,0,0,0,0,0,0,0,0,0,0,0,0,0,0,0,0,0,0,0,0,0,0,0,0,0,0,0,0,0,0,0,0,0,0,0,0,0,0,0,0,0,0,0,0,0,0,0,0,0,0,0,0,0,0,0,0,0,0,0,0,0,0,0,0],"trees":[{"base_weights":[-2.1583835E-2,2.4210078E-1,-4.7647968E-1,1.6853538E-1,6.5407866E-1,-6.936336E-1,-2.5839046E-1,-4.7004724E-1,3.0547515E-1,-8.8843876E-1,-3.704687E-1,6.61679E-1,-3.9526305E-1,-5.768615E-1,1.5662034E-1,7.237109E-1,1.5249594E-1,-2.8418264E-1,-1.0389116E0,2.0094807E-1,-5.731786E-1,3.2800242E-1,8.1726514E-2,-5.770345E-1,7.3296785E-2,-1.0297753E-1,-9.74967E-1,-5.300933E-1,2.1963444E-1,-2.051675E-1,1.0525415E-1,-1.1975335E-1,-3.267545E-1,7.1985185E-1,-1.87302E-1,-8.874082E-1,-9.336106E-2,-1.0111644E-1,1.4448453E-1,-7.8106666E-1,-3.161136E-2,4.9510804E-1,-2.4075799E-1,-1.9917345E-1,1.8237124E-1,-6.3787024E-3,-3.3683866E-1,-2.4886869E-1,-8.325602E-3,3.7737843E-1,2.5550786E-2,4.158067E-2,2.9355356E-1,-6.3787024E-3,-3.3678252E-1,-1.88325E-1,2.4971506E-1,-6.180269E-2,-3.0057895E-1,1.972844E-1,-2.5411928E-1,1.9850372E-1,2.4517955E-2],"categories":[],"categories_nodes":[],"categories_segments":[],"categories_sizes":[],"default_left":[0,0,0,0,0,0,0,0,0,0,0,0,0,0,0,0,0,0,0,0,0,0,0,0,0,0,0,0,0,0,0,0,0,0,0,0,0,0,0,0,0,0,0,0,0,0,0,0,0,0,0,0,0,0,0,0,0,0,0,0,0,0,0],"id":0,"left_children":[1,3,5,7,-1,9,11,13,15,17,19,21,23,25,-1,-1,27,29,31,33,35,-1,37,39,41,43,45,47,49,-1,-1,-1,-1,51,-1,53,55,-1,-1,57,59,61,-1,-1,-1,-1,-1,-1,-1,-1,-1,-1,-1,-1,-1,-1,-1,-1,-1,-1,-1,-1,-1],"loss_changes":[2.196502E1,1.616884E1,3.0023537E0,1.0009434E1,0E0,1.7526646E0,4.683216E0,2.454029E0,2.9769814E1,1.5156469E0,1.7544434E0,1.1425531E0,2.698831E0,3.4493246E0,0E0,0E0,4.160418E0,1.5972438E0,6.591797E-2,2.3535113E0,1.5313056E0,0E0,6.949647E-1,2.4887013E0,3.9458349E0,4.2749157E0,1.4011173E0,1.2098191E0,1.1208273E1,0E0,0E0,0E0,0E0,3.4462798E-1,0E0,1.270072E0,3.1713061E0,0E0,0E0,1.8758507E0,4.598522E0,4.349085E-1,0E0,0E0,0E0,0E0,0E0,0E0,0E0,0E0,0E0,0E0,0E0,0E0,0E0,0E0,0E0,0E0,0E0,0E0,0E0,0E0,0E0],"parents":[2147483647,0,0,1,1,2,2,3,3,5,5,6,6,7,7,8,8,9,9,10,10,11,11,12,12,13,13,16,16,17,17,18,18,19,19,20,20,22,22,23,23,24,24,25,25,26,26,27,27,28,28,33,33,35,35,36,36,39,39,40,40,41,41],"right_children":[2,4,6,8,-1,10,12,14,16,18,20,22,24,26,-1,-1,28,30,32,34,36,-1,38,40,42,44,46,48,50,-1,-1,-1,-1,52,-1,54,56,-1,-1,58,60,62,-1,-1,-1,-1,-1,-1,-1,-1,-1,-1,-1,-1,-1,-1,-1,-1,-1,-1,-1,-1,-1],"split_conditions":[1E0,1E0,4.1957255E-2,2.6919872E-3,6.5407866E-1,2.027412E3,2.43E1,3.74448E3,1E0,4.5145E2,5.4252632E1,2.8121402E2,1.85504E3,3E1,1.5662034E-1,7.237109E-1,7E0,1.4E1,1.7E1,5.5E1,2E0,3.2800242E-1,1.861E1,7.095298E1,2.98127E3,1.5E1,2.2414984E1,5E-1,4.5145E2,-2.051675E-1,1.0525415E-1,-1.1975335E-1,-3.267545E-1,4.9E1,-1.87302E-1,1E0,4.3E1,-1.0111644E-1,1.4448453E-1,3.6864944E1,1.15885E3,7.505E1,-2.4075799E-1,-1.9917345E-1,1.8237124E-1,-6.3787024E-3,-3.3683866E-1,-2.4886869E-1,-8.325602E-3,3.7737843E-1,2.5550786E-2,4.158067E-2,2.9355356E-1,-6.3787024E-3,-3.3678252E-1,-1.88325E-1,2.4971506E-1,-6.180269E-2,-3.0057895E-1,1.972844E-1,-2.5411928E-1,1.9850372E-1,2.4517955E-2],"split_indices":[4,3,6,6,0,5,1,5,2,5,1,5,5,0,0,0,0,0,0,0,3,0,1,1,5,0,1,6,5,0,0,0,0,0,0,2,0,0,0,1,5,1,0,0,0,0,0,0,0,0,0,0,0,0,0,0,0,0,0,0,0,0,0],"split_type":[0,0,0,0,0,0,0,0,0,0,0,0,0,0,0,0,0,0,0,0,0,0,0,0,0,0,0,0,0,0,0,0,0,0,0,0,0,0,0,0,0,0,0,0,0,0,0,0,0,0,0,0,0,0,0,0,0,0,0,0,0,0,0],"sum_hessian":[1.8115788E2,1.1497775E2,6.618014E1,1.1182042E2,3.157331E0,3.2068577E1,3.4111557E1,1.9315437E1,9.250498E1,1.8916471E1,1.3152106E1,3.9208686E0,3.019069E1,1.7815876E1,1.4995602E0,5.262218E0,8.724277E1,4.347349E0,1.4569122E1,3.446237E0,9.70587E0,1.7403153E0,2.1805532E0,2.1585413E1,8.605275E0,8.708455E0,9.107421E0,7.195138E0,8.004763E1,2.6207912E0,1.7265579E0,1.7128005E0,1.2856322E1,2.1943107E0,1.2519264E0,5.3516417E0,4.3542275E0,1.141867E0,1.0386863E0,1.5394568E1,6.190845E0,6.101422E0,2.5038528E0,4.9045253E0,3.8039303E0,1.3757434E0,7.731678E0,4.099715E0,3.0954225E0,8.220066E0,7.182756E1,1.1487457E0,1.0455649E0,1.3757434E0,3.9758983E0,2.964727E0,1.3895007E0,4.8082232E0,1.0586346E1,3.4599946E0,2.7308507E0,3.9208686E0,2.1805532E0],"tree_param":{"num_deleted":"0","num_feature":"7","num_nodes":"63","size_leaf_vector":"1"}},{"base_weights":[-2.036974E-2,1.7278041E-1,-3.7319314E-1,1.1751266E-1,4.5960212E-1,-5.5531E-1,-1.9711493E-1,-3.6717615E-1,2.1490085E-1,-7.231528E-1,-2.8913617E-1,5.18113E-1,-3.1138575E-1,-4.5952058E-1,1.2461099E-1,4.878036E-1,1.0511751E-1,-2.2699574E-1,-8.562201E-1,2.4933061E-1,-4.7525358E-1,2.5057024E-1,6.92006E-2,-7.005918E-1,-1.11015856E-1,-2.5714735E-2,-7.8232926E-1,5.6192208E-2,1.0383849E0,-5.662073E-1,1.2617852E-1,-9.994766E-2,-2.6966697E-1,-9.093639E-2,2.892538E-1,-2.9776835E-1,-2.381001E-1,-9.765492E-2,1.3336626E-1,-2.8450388E-1,-1.3604708E-1,1.8676843E-1,-2.1193652E-1,-1.6004218E-1,2.0498092E-1,3.9377354E-2,-2.742139E-1,4.822642E-2,-1.5044633E-1,3.9836287E-1,3.7314806E-2,-2.0823507E-1,-5.9581123E-2,1.8296157E-1,-1.5746659E-1,2.0897463E-1,-1.9665314E-1,1.98439E-1,-9.081731E-2],"categories":[],"categories_nodes":[],"categories_segments":[],"categories_sizes":[],"default_left":[0,0,0,0,0,0,0,0,0,0,0,0,0,0,0,0,0,0,0,0,0,0,0,0,0,0,0,0,0,0,0,0,0,0,0,0,0,0,0,0,0,0,0,0,0,0,0,0,0,0,0,0,0,0,0,0,0,0,0],"id":1,"left_children":[1,3,5,7,-1,9,11,13,15,17,19,21,23,25,-1,-1,27,29,31,33,35,-1,37,39,41,43,45,47,49,51,-1,-1,-1,-1,-1,-1,53,-1,-1,-1,55,-1,57,-1,-1,-1,-1,-1,-1,-1,-1,-1,-1,-1,-1,-1,-1,-1,-1],"loss_changes":[1.229879E1,8.586498E0,1.9372902E0,5.4233007E0,0E0,1.1680517E0,2.9403186E0,1.5864635E0,1.4532062E1,1.0097885E0,1.4801604E0,6.624681E-1,2.257308E0,2.465361E0,0E0,0E0,4.0112405E0,1.3843398E0,1.3453484E-2,1.9295502E0,1.0446045E0,0E0,6.165727E-1,1.2679648E0,1.6832943E0,3.4627883E0,1.3404512E0,5.0806103E0,9.944072E-1,4.3192267E-2,0E0,0E0,0E0,0E0,0E0,0E0,2.3810706E0,0E0,0E0,0E0,2.2791777E0,0E0,1.7200446E0,0E0,0E0,0E0,0E0,0E0,0E0,0E0,0E0,0E0,0E0,0E0,0E0,0E0,0E0,0E0,0E0],"parents":[2147483647,0,0,1,1,2,2,3,3,5,5,6,6,7,7,8,8,9,9,10,10,11,11,12,12,13,13,16,16,17,17,18,18,19,19,20,20,22,22,23,23,24,24,25,25,26,26,27,27,28,28,29,29,36,36,40,40,42,42],"right_children":[2,4,6,8,-1,10,12,14,16,18,20,22,24,26,-1,-1,28,30,32,34,36,-1,38,40,42,44,46,48,50,52,-1,-1,-1,-1,-1,-1,54,-1,-1,-1,56,-1,58,-1,-1,-1,-1,-1,-1,-1,-1,-1,-1,-1,-1,-1,-1,-1,-1],"split_conditions":[1E0,1E0,4.1957255E-2,2.6919872E-3,4.5960212E-1,2.027412E3,2.43E1,3.74448E3,1E0,4.5145E2,2.4314597E3,2.8121402E2,6.825E2,2.7E1,1.2461099E-1,4.878036E-1,4.63632E3,3.3856247E2,1.7E1,4.4E1,2.6182075E3,2.5057024E-1,4.881E2,2.857143E-1,1.3E1,1.5E1,8.1906E2,2.89565E3,5.8E1,1.728E1,1.2617852E-1,-9.994766E-2,-2.6966697E-1,-9.093639E-2,2.892538E-1,-2.9776835E-1,2.89565E3,-9.765492E-2,1.3336626E-1,-2.8450388E-1,4.321E1,1.8676843E-1,4.6286866E-2,-1.6004218E-1,2.0498092E-1,3.9377354E-2,-2.742139E-1,4.822642E-2,-1.5044633E-1,3.9836287E-1,3.7314806E-2,-2.0823507E-1,-5.9581123E-2,1.8296157E-1,-1.5746659E-1,2.0897463E-1,-1.9665314E-1,1.98439E-1,-9.081731E-2],"split_indices":[4,3,6,6,0,5,1,5,2,5,5,5,5,0,0,0,5,5,0,0,5,0,5,6,0,0,5,5,0,1,0,0,0,0,0,0,5,0,0,0,1,0,6,0,0,0,0,0,0,0,0,0,0,0,0,0,0,0,0],"split_type":[0,0,0,0,0,0,0,0,0,0,0,0,0,0,0,0,0,0,0,0,0,0,0,0,0,0,0,0,0,0,0,0,0,0,0,0,0,0,0,0,0,0,0,0,0,0,0,0,0,0,0,0,0,0,0,0,0,0,0],"sum_hessian":[1.7852585E2,1.1569817E2,6.282768E1,1.1222157E2,3.4766052E0,2.982552E1,3.300216E1,1.8312471E1,9.3909096E1,1.7238497E1,1.2587023E1,4.0594897E0,2.8942669E1,1.6748814E1,1.5636574E0,5.781747E0,8.812735E1,4.217801E0,1.3020696E1,3.1458747E0,9.441148E0,1.8746357E0,2.1848543E0,8.987845E0,1.9954824E1,7.606497E0,9.142316E0,8.474493E1,3.382429E0,2.8504117E0,1.3673898E0,1.6463988E0,1.1374297E1,2.099385E0,1.0464897E0,1.9664283E0,7.47472E0,1.1296757E0,1.0551784E0,5.77403E0,3.2138152E0,1.7881571E0,1.8166668E1,4.5764766E0,3.0300205E0,1.1524472E0,7.989869E0,7.1963776E1,1.2781145E1,2.2249174E0,1.1575116E0,1.4556789E0,1.3947326E0,1.6043745E0,5.8703456E0,1.1037266E0,2.1100886E0,1.1187004E0,1.7047966E1],"tree_param":{"num_deleted":"0","num_feature":"7","num_nodes":"59","size_leaf_vector":"1"}},{"base_weights":[-1.2746532E-2,1.3139813E-1,-2.8704053E-1,8.805479E-2,3.710988E-1,-4.4710663E-1,-1.383184E-1,-4.6699682E-1,1.4490528E-1,-5.9706306E-1,-2.2192284E-1,2.3799561E-1,-2.0020841E-1,-2.1610923E-1,-2.994238E-1,6.56224E-1,1.4746747E-2,-1.19365826E-1,-2.1558677E-1,2.1940379E-1,-3.8310343E-1,1.5704377E-1,-2.5295964E-1,-6.226845E-1,4.031762E-1,4.891278E-1,1.2189007E0,-1.6041633E-1,2.628369E-1,-1.8914361E-1,1.09694764E-1,-1.13108866E-1,1.9885208E-1,-2.6140308E-1,-1.7311172E-1,-4.1343144E-1,7.875388E-2,-4.0390622E-2,-2.3737177E-1,-7.861647E-2,3.261018E-1,2.3546061E-1,-1.2209507E-1,4.769487E-1,7.054533E-2,9.241336E-3,-1.2592943E-1,-7.855227E-2,1.4093037E-1,-1.5905094E-1,9.10119E-2,-1.6762349E-1,1.17411524E-1,2.2295599E-1,-3.901301E-2],"categories":[],"categories_nodes":[],"categories_segments":[],"categories_sizes":[],"default_left":[0,0,0,0,0,0,0,0,0,0,0,0,0,0,0,0,0,0,0,0,0,0,0,0,0,0,0,0,0,0,0,0,0,0,0,0,0,0,0,0,0,0,0,0,0,0,0,0,0,0,0,0,0,0,0],"id":2,"left_children":[1,3,5,7,-1,9,11,13,15,17,19,-1,21,23,-1,25,27,29,-1,31,33,-1,35,37,39,41,43,45,47,-1,-1,-1,-1,-1,49,51,53,-1,-1,-1,-1,-1,-1,-1,-1,-1,-1,-1,-1,-1,-1,-1,-1,-1,-1],"loss_changes":[6.9599023E0,5.4235663E0,1.3813539E0,3.6072888E0,0E0,8.383517E-1,2.054309E0,1.2044759E0,6.8129253E0,8.820267E-1,1.0147828E0,0E0,1.3397015E0,2.39507E0,0E0,1.3573408E0,3.637598E0,1.3659075E0,0E0,1.34383E0,8.691108E-1,0E0,1.6374767E0,3.4866858E-1,2.0961943E0,5.0076923E0,1.1175785E0,2.4487944E0,3.8817291E0,0E0,0E0,0E0,0E0,0E0,1.5566443E0,2.6137984E0,1.5769358E0,0E0,0E0,0E0,0E0,0E0,0E0,0E0,0E0,0E0,0E0,0E0,0E0,0E0,0E0,0E0,0E0,0E0,0E0],"parents":[2147483647,0,0,1,1,2,2,3,3,5,5,6,6,7,7,8,8,9,9,10,10,12,12,13,13,15,15,16,16,17,17,19,19,20,20,22,22,23,23,24,24,25,25,26,26,27,27,28,28,34,34,35,35,36,36],"right_children":[2,4,6,8,-1,10,12,14,16,18,20,-1,22,24,-1,26,28,30,-1,32,34,-1,36,38,40,42,44,46,48,-1,-1,-1,-1,-1,50,52,54,-1,-1,-1,-1,-1,-1,-1,-1,-1,-1,-1,-1,-1,-1,-1,-1,-1,-1],"split_conditions":[1E0,1E0,4.1957255E-2,7E0,3.710988E-1,2.027412E3,1.621E1,8.916E1,5.9224E2,1.9718502E1,2.4314597E3,2.3799561E-1,4.6286866E-2,2.9983127E-1,-2.994238E-1,5.430372E2,6.905E1,1.46E1,-2.1558677E-1,4E1,2.6182075E3,1.5704377E-1,7.095298E1,4E0,1.8667902E2,4.881E2,6.263865E-2,1.66632E3,1.8142537E3,-1.8914361E-1,1.09694764E-1,-1.13108866E-1,1.9885208E-1,-2.6140308E-1,2E0,4E0,7.838909E1,-4.0390622E-2,-2.3737177E-1,-7.861647E-2,3.261018E-1,2.3546061E-1,-1.2209507E-1,4.769487E-1,7.054533E-2,9.241336E-3,-1.2592943E-1,-7.855227E-2,1.4093037E-1,-1.5905094E-1,9.10119E-2,-1.6762349E-1,1.17411524E-1,2.2295599E-1,-3.901301E-2],"split_indices":[4,3,6,0,0,5,1,1,5,1,5,0,6,6,0,5,1,1,0,0,5,0,1,0,5,5,6,5,5,0,0,0,0,0,3,2,1,0,0,0,0,0,0,0,0,0,0,0,0,0,0,0,0,0,0],"split_type":[0,0,0,0,0,0,0,0,0,0,0,0,0,0,0,0,0,0,0,0,0,0,0,0,0,0,0,0,0,0,0,0,0,0,0,0,0,0,0,0,0,0,0,0,0,0,0,0,0,0,0,0,0,0,0],"sum_hessian":[1.7407672E2,1.1445189E2,5.9624832E1,1.1117315E2,3.2787359E0,2.7750883E1,3.1873947E1,9.658573E0,1.0151458E2,1.56665945E1,1.208429E1,1.2493368E0,3.062461E1,7.515238E0,2.1433356E0,1.9777664E1,8.173691E1,3.5800142E0,1.208658E1,3.1361108E0,8.948178E0,1.4743694E0,2.915024E1,4.5334406E0,2.9817975E0,1.6690447E1,3.0872188E0,4.8117287E1,3.3619625E1,1.5970812E0,1.9829332E0,1.401207E0,1.7349039E0,1.7439641E0,7.204214E0,1.9480083E1,9.6701565E0,1.6255207E0,2.90792E0,1.8240962E0,1.1577011E0,1.264229E1,4.0481563E0,1.7945008E0,1.2927178E0,2.8203629E1,1.9913658E1,9.434049E0,2.4185577E1,4.0537963E0,3.150418E0,1.6759722E1,2.720363E0,1.7002538E0,7.969903E0],"tree_param":{"num_deleted":"0","num_feature":"7","num_nodes":"55","size_leaf_vector":"1"}},{"base_weights":[-8.530559E-3,-3.472317E-1,6.519633E-2,-3.965924E-1,1.2785172E-1,4.1581938E-1,-4.3275496E-3,-2.0004241E-1,-5.6666744E-1,6.293128E-2,2.4624856E-3,-3.346739E-1,6.489897E-2,-4.665443E-1,1.4663105E-1,-8.64665E-1,-2.6121286E-1,-4.189726E-1,1.4653824E-1,7.865495E-1,2.8695006E-2,-1.4056653E-1,-1.7775774E-1,4.8072767E-1,-1.446247E-1,-7.966693E-2,-2.9030982E-1,1.2720801E-1,-4.4975638E-1,-6.2139E-1,-1.9962382E-1,-4.6651803E-2,1.0582912E0,-3.61951E-1,7.7747576E-2,-1.2898563E-1,4.075463E-2,-4.4609956E-2,2.876066E-1,-1.7209285E-1,-6.0025123E-3,-3.6484793E-2,-2.0093176E-1,-1.6982582E-1,1.5736313E-1,4.11309E-1,4.8211593E-2,6.65323E-2,-1.8006039E-1,1.4921229E-1,2.0581346E-3],"categories":[],"categories_nodes":[],"categories_segments":[],"categories_sizes":[],"default_left":[0,0,0,0,0,0,0,0,0,0,0,0,0,0,0,0,0,0,0,0,0,0,0,0,0,0,0,0,0,0,0,0,0,0,0,0,0,0,0,0,0,0,0,0,0,0,0,0,0,0,0],"id":3,"left_children":[1,3,5,7,9,-1,11,13,15,-1,-1,17,19,21,23,25,27,29,-1,31,33,35,-1,37,-1,-1,-1,-1,39,41,43,-1,45,47,49,-1,-1,-1,-1,-1,-1,-1,-1,-1,-1,-1,-1,-1,-1,-1,-1],"loss_changes":[4.2990394E0,7.7231336E-1,1.2998414E1,8.266177E-1,3.4076076E-2,0E0,3.1182122E0,1.4163622E0,1.0966578E0,0E0,0E0,1.8437042E0,2.9240346E0,2.6528513E-1,1.7235395E0,1.7027855E-1,1.3028033E0,8.5120535E-1,0E0,1.5341241E0,2.1059325E0,3.5253233E-1,0E0,1.688378E0,0E0,0E0,0E0,0E0,3.7374687E-1,1.8332195E-1,3.485468E0,0E0,9.811902E-1,1.8400078E0,2.8866746E0,0E0,0E0,0E0,0E0,0E0,0E0,0E0,0E0,0E0,0E0,0E0,0E0,0E0,0E0,0E0,0E0],"parents":[2147483647,0,0,1,1,2,2,3,3,4,4,6,6,7,7,8,8,11,11,12,12,13,13,14,14,15,15,16,16,17,17,19,19,20,20,21,21,23,23,28,28,29,29,30,30,32,32,33,33,34,34],"right_children":[2,4,6,8,10,-1,12,14,16,-1,-1,18,20,22,24,26,28,30,-1,32,34,36,-1,38,-1,-1,-1,-1,40,42,44,-1,46,48,50,-1,-1,-1,-1,-1,-1,-1,-1,-1,-1,-1,-1,-1,-1,-1,-1],"split_conditions":[2.6919872E-3,5.2E1,1E0,2.7E1,6.86E1,4.1581938E-1,2.7203219E-2,1.5E1,2.0092081E3,6.293128E-2,2.4624856E-3,4.63632E3,3.125E-2,1.7541011E2,7.426E1,8.1906E2,5.613E1,4.5E1,1.4653824E-1,1.5849698E1,7E0,1.9861698E1,-1.7775774E-1,3.3162704E1,-1.446247E-1,-7.966693E-2,-2.9030982E-1,1.2720801E-1,8.245E1,2.2727273E-2,1.9922273E-2,-4.6651803E-2,1E0,4.524E1,4.5145E2,-1.2898563E-1,4.075463E-2,-4.4609956E-2,2.876066E-1,-1.7209285E-1,-6.0025123E-3,-3.6484793E-2,-2.0093176E-1,-1.6982582E-1,1.5736313E-1,4.11309E-1,4.8211593E-2,6.65323E-2,-1.8006039E-1,1.4921229E-1,2.0581346E-3],"split_indices":[6,0,2,0,1,0,6,0,5,0,0,5,6,5,1,5,1,0,0,1,0,1,0,1,0,0,0,0,1,6,6,0,4,1,5,0,0,0,0,0,0,0,0,0,0,0,0,0,0,0,0],"split_type":[0,0,0,0,0,0,0,0,0,0,0,0,0,0,0,0,0,0,0,0,0,0,0,0,0,0,0,0,0,0,0,0,0,0,0,0,0,0,0,0,0,0,0,0,0,0,0,0,0,0,0],"sum_hessian":[1.7025209E2,2.9771624E1,1.4048047E2,2.7119183E1,2.6524427E0,6.077571E0,1.3440291E2,1.3589944E1,1.3529238E1,1.1272917E0,1.5251509E0,2.2621147E1,1.1178175E2,7.4879103E0,6.1020336E0,5.9215264E0,7.607712E0,2.096508E1,1.6560675E0,4.3499074E0,1.0743185E2,2.6769807E0,4.81093E0,4.13832E0,1.9637136E0,1.3938922E0,4.527634E0,1.3720815E0,6.23563E0,9.95012E0,1.101496E1,1.069608E0,3.2802997E0,1.1273427E1,9.615842E1,1.0364453E0,1.6405354E0,2.083475E0,2.0548446E0,4.5803776E0,1.6552527E0,1.1883659E0,8.761754E0,7.4587717E0,3.556189E0,2.041524E0,1.2387757E0,3.2876558E0,7.985771E0,1.3026966E1,8.3131454E1],"tree_param":{"num_deleted":"0","num_feature":"7","num_nodes":"51","size_leaf_vector":"1"}},{"base_weights":[-6.1705844E-3,9.23902E-2,-2.0021018E-1,5.830407E-2,3.1209692E-1,-2.9089218E-1,-3.9609972E-2,1.8854937E-1,-8.427678E-2,-1.7369474E-1,-5.620835E-1,-2.2970702E-1,6.223708E-1,-6.596607E-4,7.1512556E-1,5.656471E-1,-1.7297739E-1,-2.5415406E-1,1.9855295E-1,-2.5252664E-1,-2.3430745E-1,-4.6507528E-1,1.3459161E-1,8.465884E-1,-1.7207007E-4,1.823057E-1,-7.7441716E-1,-1.0275633E-1,9.548314E-1,-4.7878427E-3,3.398708E-1,-2.9505882E-1,-8.1087396E-2,-3.9656937E-1,9.828819E-2,1.2816197E-1,-5.629206E-1,1.4936198E-1,-2.6046076E-1,5.174936E-1,-2.8406158E-1,5.028922E-2,3.197607E-1,1.1146499E-2,3.0048135E-1,-2.6438794E-1,-9.545856E-2,1.8629341E-1,-1.8947472E-1,1.272999E-1,4.336217E-1,-1.4122844E-1,1.3008305E-1,-6.2366642E-2,9.954682E-2,-4.2847075E-2,-1.727799E-1,1.5012893E-1,-8.6969934E-2,-2.6437032E-1,5.8636606E-2,1.9467326E-1,-1.6423227E-1,-1.0059096E-1,2.910621E-1,-2.416907E-1,7.2638124E-2],"categories":[],"categories_nodes":[],"categories_segments":[],"categories_sizes":[],"default_left":[0,0,0,0,0,0,0,0,0,0,0,0,0,0,0,0,0,0,0,0,0,0,0,0,0,0,0,0,0,0,0,0,0,0,0,0,0,0,0,0,0,0,0,0,0,0,0,0,0,0,0,0,0,0,0,0,0,0,0,0,0,0,0,0,0,0,0],"id":4,"left_children":[1,3,5,7,-1,9,11,13,15,17,19,21,23,25,27,29,31,33,-1,-1,35,37,39,41,-1,43,45,47,49,51,-1,-1,53,55,57,-1,59,61,-1,63,65,-1,-1,-1,-1,-1,-1,-1,-1,-1,-1,-1,-1,-1,-1,-1,-1,-1,-1,-1,-1,-1,-1,-1,-1,-1,-1],"loss_changes":[3.2261088E0,3.5552874E0,8.158562E-1,2.0416384E0,0E0,1.0513844E0,2.8686242E0,5.7111454E0,3.1397998E0,1.962508E0,7.617955E-1,1.5680792E0,7.13081E-1,6.2521014E0,3.0686803E0,2.1316643E0,3.4354997E0,1.2972379E0,0E0,0E0,1.5887659E0,2.8273008E0,1.3760399E0,3.7996316E-1,0E0,4.210623E0,1.3137388E-1,2.0521314E0,2.461481E0,1.0768355E0,0E0,0E0,2.34551E0,7.393639E-1,1.3963952E0,0E0,1.2767326E0,2.1540954E0,0E0,2.008148E0,1.3774129E0,0E0,0E0,0E0,0E0,0E0,0E0,0E0,0E0,0E0,0E0,0E0,0E0,0E0,0E0,0E0,0E0,0E0,0E0,0E0,0E0,0E0,0E0,0E0,0E0,0E0,0E0],"parents":[2147483647,0,0,1,1,2,2,3,3,5,5,6,6,7,7,8,8,9,9,10,10,11,11,12,12,13,13,14,14,15,15,16,16,17,17,20,20,21,21,22,22,23,23,25,25,26,26,27,27,28,28,29,29,32,32,33,33,34,34,36,36,37,37,39,39,40,40],"right_children":[2,4,6,8,-1,10,12,14,16,18,20,22,24,26,28,30,32,34,-1,-1,36,38,40,42,-1,44,46,48,50,52,-1,-1,54,56,58,-1,60,62,-1,64,66,-1,-1,-1,-1,-1,-1,-1,-1,-1,-1,-1,-1,-1,-1,-1,-1,-1,-1,-1,-1,-1,-1,-1,-1,-1,-1],"split_conditions":[1E0,1E0,6.521739E-2,3.2E1,3.1209692E-1,2E0,2.7E1,1.3906235E3,6.984007E2,4.987471E-2,4.996E1,7.095298E1,1.95975E3,7.965E1,3.368549E-2,3.9E1,9.0376E2,4.5E1,1.9855295E-1,-2.5252664E-1,5.866E1,3.5908306E1,1.15885E3,9.9972E2,-1.7207007E-4,6.871E1,3.6302942E-1,2.8E1,2.7E1,5.2459E2,3.398708E-1,-2.9505882E-1,3.74448E3,1.13728E3,5.1E1,1.2816197E-1,5.1E1,2.8121402E2,-2.6046076E-1,5.3458026E2,2.2E1,5.028922E-2,3.197607E-1,1.1146499E-2,3.0048135E-1,-2.6438794E-1,-9.545856E-2,1.8629341E-1,-1.8947472E-1,1.272999E-1,4.336217E-1,-1.4122844E-1,1.3008305E-1,-6.2366642E-2,9.954682E-2,-4.2847075E-2,-1.727799E-1,1.5012893E-1,-8.6969934E-2,-2.6437032E-1,5.8636606E-2,1.9467326E-1,-1.6423227E-1,-1.0059096E-1,2.910621E-1,-2.416907E-1,7.2638124E-2],"split_indices":[4,3,6,0,0,2,0,5,5,6,1,1,5,1,6,0,5,0,0,0,1,1,5,5,0,1,6,0,0,5,0,0,5,5,0,0,0,5,0,5,0,0,0,0,0,0,0,0,0,0,0,0,0,0,0,0,0,0,0,0,0,0,0,0,0,0,0],"split_type":[0,0,0,0,0,0,0,0,0,0,0,0,0,0,0,0,0,0,0,0,0,0,0,0,0,0,0,0,0,0,0,0,0,0,0,0,0,0,0,0,0,0,0,0,0,0,0,0,0,0,0,0,0,0,0,0,0,0,0,0,0,0,0,0,0,0,0],"sum_hessian":[1.667209E2,1.1090931E2,5.5811596E1,1.0808428E2,2.82503E0,3.5151962E1,2.0659634E1,5.6317112E1,5.176717E1,2.569022E1,9.4617405E0,1.6557823E1,4.1018105E0,4.2165115E1,1.4151996E1,5.5709405E0,4.619623E1,2.4068344E1,1.6218754E0,4.259381E0,5.2023597E0,9.890851E0,6.6669726E0,2.7521963E0,1.3496144E0,3.471959E1,7.445524E0,3.3370905E0,1.0814905E1,3.2720802E0,2.2988603E0,3.7158422E0,4.248039E1,1.7052532E1,7.015813E0,1.6270336E0,3.575326E0,4.167831E0,5.7230206E0,3.3588564E0,3.308116E0,1.1026193E0,1.6495769E0,3.0382277E1,4.337313E0,5.2774844E0,2.1680398E0,1.3353356E0,2.001755E0,6.092046E0,4.72286E0,1.5503693E0,1.7217109E0,3.2879795E1,9.6005945E0,7.805859E0,9.246673E0,3.303954E0,3.711859E0,2.4042048E0,1.1711212E0,2.4675424E0,1.7002885E0,1.254689E0,2.1041675E0,1.3946346E0,1.9134814E0],"tree_param":{"num_deleted":"0","num_feature":"7","num_nodes":"67","size_leaf_vector":"1"}},{"base_weights":[-3.6107127E-3,-2.5304654E-1,4.844881E-2,-1.970451E-1,-2.2842064E-1,3.5652438E-1,-4.761543E-3,-2.5736737E-1,1.6627583E-1,-2.3364946E-1,3.8725335E-2,-9.8468274E-2,-4.2871037E-1,-4.969451E-1,-3.841519E-2,2.3061743E-1,-5.7892866E-2,-2.1700546E-1,3.823202E-1,-6.047673E-1,9.462394E-2,-3.0763614E-1,-2.3895064E-1,-2.1840379E-1,5.417479E-1,-8.685144E-2,6.269421E-1,-3.024902E-1,9.467088E-2,-2.0726081E-2,-2.0206945E-1,1.9727637E-1,-1.6963592E-2,-2.1573192E-1,-2.3546966E-2,1.386087E-1,-1.3030842E-1,-1.7395471E-1,1.7192009E-1,-2.141359E-1,3.176203E-2,2.1866618E-1,2.847829E-2,8.7740436E-2,-1.0138632E-1,8.3521426E-2,4.5352718E-1,-1.3295634E-1,1.01915486E-1,-3.7347343E-2,1.9034739E-1],"categories":[],"categories_nodes":[],"categories_segments":[],"categories_sizes":[],"default_left":[0,0,0,0,0,0,0,0,0,0,0,0,0,0,0,0,0,0,0,0,0,0,0,0,0,0,0,0,0,0,0,0,0,0,0,0,0,0,0,0,0,0,0,0,0,0,0,0,0,0,0],"id":5,"left_children":[1,3,5,7,-1,-1,9,11,-1,13,15,17,19,21,23,25,27,29,31,33,35,37,-1,39,41,43,45,47,49,-1,-1,-1,-1,-1,-1,-1,-1,-1,-1,-1,-1,-1,-1,-1,-1,-1,-1,-1,-1,-1,-1],"loss_changes":[2.1413593E0,6.605222E-1,8.284738E0,1.3660902E0,0E0,0E0,1.3169255E0,6.5674186E-1,0E0,1.0666109E0,2.0764444E0,9.160603E-1,1.1678622E0,2.6019192E-1,1.4979224E0,4.768401E0,2.8203254E0,7.884943E-1,4.3019742E-1,4.9445844E-1,9.584854E-1,2.0316603E0,0E0,1.809874E0,2.1641123E-1,2.1638818E0,4.75546E0,2.768733E0,5.619936E0,0E0,0E0,0E0,0E0,0E0,0E0,0E0,0E0,0E0,0E0,0E0,0E0,0E0,0E0,0E0,0E0,0E0,0E0,0E0,0E0,0E0,0E0],"parents":[2147483647,0,0,1,1,2,2,3,3,6,6,7,7,9,9,10,10,11,11,12,12,13,13,14,14,15,15,16,16,17,17,18,18,19,19,20,20,21,21,23,23,24,24,25,25,26,26,27,27,28,28],"right_children":[2,4,6,8,-1,-1,10,12,-1,14,16,18,20,22,24,26,28,30,32,34,36,38,-1,40,42,44,46,48,50,-1,-1,-1,-1,-1,-1,-1,-1,-1,-1,-1,-1,-1,-1,-1,-1,-1,-1,-1,-1,-1,-1],"split_conditions":[2.6919872E-3,9.5612335E1,1E0,3.74448E3,-2.2842064E-1,3.5652438E-1,2.651542E-2,3.1E1,1.6627583E-1,4.5E1,2E0,2.5E1,4.7E1,2.69762E3,2.0816797E-2,2.1E1,6.6526875E-2,2E1,6.371317E1,2.9162778E3,2.69762E3,5.726E1,-2.3895064E-1,2.10862E3,4.454E1,4.889E1,4.0816326E-2,5.6E1,2.7E1,-2.0726081E-2,-2.0206945E-1,1.9727637E-1,-1.6963592E-2,-2.1573192E-1,-2.3546966E-2,1.386087E-1,-1.3030842E-1,-1.7395471E-1,1.7192009E-1,-2.141359E-1,3.176203E-2,2.1866618E-1,2.847829E-2,8.7740436E-2,-1.0138632E-1,8.3521426E-2,4.5352718E-1,-1.3295634E-1,1.01915486E-1,-3.7347343E-2,1.9034739E-1],"split_indices":[6,1,2,5,0,0,6,0,0,0,2,0,0,5,6,0,6,0,1,5,5,1,0,5,1,1,6,0,0,0,0,0,0,0,0,0,0,0,0,0,0,0,0,0,0,0,0,0,0,0,0],"split_type":[0,0,0,0,0,0,0,0,0,0,0,0,0,0,0,0,0,0,0,0,0,0,0,0,0,0,0,0,0,0,0,0,0,0,0,0,0,0,0,0,0,0,0,0,0,0,0,0,0,0,0],"sum_hessian":[1.6295966E2,2.7471783E1,1.3548788E2,2.5995665E1,1.4761196E0,5.090743E0,1.3039714E2,2.4672153E1,1.3235097E0,2.012081E1,1.1027632E2,1.3617925E1,1.105423E1,7.909104E0,1.2211706E1,3.64656E1,7.381072E1,1.1364646E1,2.2532783E0,8.155127E0,2.8991027E0,6.088418E0,1.8206856E0,9.796124E0,2.4155817E0,2.0680616E1,1.5784984E1,2.7975838E1,4.583489E1,9.453252E0,1.9113941E0,1.0784595E0,1.1748188E0,6.3985715E0,1.7565554E0,1.7855381E0,1.1135647E0,4.911844E0,1.1765745E0,3.4003758E0,6.395749E0,1.2575942E0,1.1579876E0,8.17166E0,1.2508955E1,1.2267386E1,3.5175965E0,2.3202454E1,4.773384E0,3.314693E1,1.2687958E1],"tree_param":{"num_deleted":"0","num_feature":"7","num_nodes":"51","size_leaf_vector":"1"}},{"base_weights":[-1.2969874E-3,7.276859E-2,-1.5047887E-1,4.515295E-2,2.746817E-1,-2.4162339E-1,6.9222176E-3,1.126421E-1,-2.8467104E-1,-1.3036554E-1,-8.6526555E-1,2.0748828E-1,-3.7569866E-1,6.87349E-2,7.230816E-1,3.7759706E-1,-4.7165886E-1,-2.5813407E-1,3.9071786E-1,-3.0594793E-1,-4.8299268E-2,3.370306E-1,-1.7616278E-1,-5.853454E-1,-2.763891E-2,-5.626266E-1,1.0863801E-1,1.1092256E0,-1.3852231E-1,-4.476816E-2,6.155675E-1,-7.314298E-1,-1.7256066E-1,-1.0405796E-1,-5.5209345E-1,2.2379495E-1,-8.447038E-2,6.628417E-1,-7.1154837E-3,-2.4171178E-1,-6.0415655E-2,-1.6378573E-1,1.4171755E-1,-2.4020026E-2,-2.204083E-1,2.1135516E-1,1.9680338E-2,5.4071806E-3,4.2035642E-1,6.368715E-2,2.2586441E-1,-1.0179856E-1,-3.3735496E-1,1.6158071E-1,-1.6117464E-1,-7.207002E-2,1.7886364E-1,-1.9536033E-1,2.0267595E-2,6.7846894E-2,2.958149E-1,-9.244324E-2,1.6018184E-1],"categories":[],"categories_nodes":[],"categories_segments":[],"categories_sizes":[],"default_left":[0,0,0,0,0,0,0,0,0,0,0,0,0,0,0,0,0,0,0,0,0,0,0,0,0,0,0,0,0,0,0,0,0,0,0,0,0,0,0,0,0,0,0,0,0,0,0,0,0,0,0,0,0,0,0,0,0,0,0,0,0,0,0],"id":6,"left_children":[1,3,5,7,-1,9,11,13,15,17,19,21,23,25,27,29,31,33,35,-1,-1,37,-1,39,41,43,45,47,-1,-1,49,51,53,55,57,-1,-1,59,61,-1,-1,-1,-1,-1,-1,-1,-1,-1,-1,-1,-1,-1,-1,-1,-1,-1,-1,-1,-1,-1,-1,-1,-1],"loss_changes":[1.7846268E0,2.4710686E0,7.7037835E-1,2.3819995E0,0E0,2.2435827E0,1.6604563E0,2.3184164E0,2.4338937E0,2.097995E0,3.7615538E-1,1.6570406E0,5.272827E-1,2.165522E0,3.1765273E0,6.6431093E-1,1.0120335E0,1.060915E0,1.7158508E0,0E0,0E0,1.4424479E0,0E0,2.268225E-1,1.2555217E0,3.6690748E-1,1.9900528E0,1.4676733E0,0E0,0E0,2.5151491E-2,7.7926445E-1,2.3948512E0,1.805636E0,5.512123E-1,0E0,0E0,7.081394E-1,1.341307E0,0E0,0E0,0E0,0E0,0E0,0E0,0E0,0E0,0E0,0E0,0E0,0E0,0E0,0E0,0E0,0E0,0E0,0E0,0E0,0E0,0E0,0E0,0E0,0E0],"parents":[2147483647,0,0,1,1,2,2,3,3,5,5,6,6,7,7,8,8,9,9,10,10,11,11,12,12,13,13,14,14,15,15,16,16,17,17,18,18,21,21,23,23,24,24,25,25,26,26,27,27,30,30,31,31,32,32,33,33,34,34,37,37,38,38],"right_children":[2,4,6,8,-1,10,12,14,16,18,20,22,24,26,28,30,32,34,36,-1,-1,38,-1,40,42,44,46,48,-1,-1,50,52,54,56,58,-1,-1,60,62,-1,-1,-1,-1,-1,-1,-1,-1,-1,-1,-1,-1,-1,-1,-1,-1,-1,-1,-1,-1,-1,-1,-1,-1],"split_conditions":[1E0,1E0,1.85504E3,3E0,2.746817E-1,1.5806134E3,2.94075E3,2.0689656E-1,3.5908306E1,7.057E1,3.4E1,5.5E1,2E0,8E0,8.485E1,3.6E1,1.464149E3,4.321E1,9.0128876E1,-3.0594793E-1,-4.8299268E-2,5.806E1,-1.7616278E-1,7.057E1,4.5E1,4E0,3.077753E2,1.8667902E2,-1.3852231E-1,-4.476816E-2,6.897756E-2,1.02579E3,3.3E1,2.2430849E-1,1.30416E3,2.2379495E-1,-8.447038E-2,2.651542E-2,7.633817E-2,-2.4171178E-1,-6.0415655E-2,-1.6378573E-1,1.4171755E-1,-2.4020026E-2,-2.204083E-1,2.1135516E-1,1.9680338E-2,5.4071806E-3,4.2035642E-1,6.368715E-2,2.2586441E-1,-1.0179856E-1,-3.3735496E-1,1.6158071E-1,-1.6117464E-1,-7.207002E-2,1.7886364E-1,-1.9536033E-1,2.0267595E-2,6.7846894E-2,2.958149E-1,-9.244324E-2,1.6018184E-1],"split_indices":[4,3,5,2,0,5,5,6,1,1,0,0,3,0,1,0,5,1,1,0,0,1,0,1,0,0,5,5,0,0,6,5,0,6,5,0,0,6,6,0,0,0,0,0,0,0,0,0,0,0,0,0,0,0,0,0,0,0,0,0,0,0,0],"split_type":[0,0,0,0,0,0,0,0,0,0,0,0,0,0,0,0,0,0,0,0,0,0,0,0,0,0,0,0,0,0,0,0,0,0,0,0,0,0,0,0,0,0,0,0,0,0,0,0,0,0,0,0,0,0,0,0,0,0,0,0,0,0,0],"sum_hessian":[1.5952475E2,1.0694238E2,5.2582363E1,1.0456972E2,2.3726647E0,3.296095E1,1.9621416E1,8.735372E1,1.7215992E1,2.8996931E1,3.9640174E0,1.3173642E1,6.447774E0,8.253016E1,4.8235645E0,3.5661473E0,1.3649845E1,2.369226E1,5.3046703E0,2.8831964E0,1.0808209E0,1.1822394E1,1.3512477E0,3.5985324E0,2.8492415E0,4.127265E0,7.840289E1,3.686052E0,1.1375124E0,1.2256635E0,2.3404837E0,6.531605E0,7.1182404E0,1.643303E1,7.259232E0,3.3989134E0,1.9057568E0,5.5972757E0,6.2251186E0,1.5884721E0,2.0100603E0,1.3539495E0,1.495292E0,1.4700015E0,2.6572635E0,4.245842E0,7.415705E1,1.0021765E0,2.6838758E0,1.2412068E0,1.0992769E0,4.20269E0,2.3289142E0,2.2512627E0,4.8669777E0,1.430768E1,2.125348E0,6.2143846E0,1.0448471E0,3.103657E0,2.4936185E0,4.276347E0,1.9487714E0],"tree_param":{"num_deleted":"0","num_feature":"7","num_nodes":"63","size_leaf_vector":"1"}},{"base_weights":[-3.0469578E-3,-2.9111797E-1,2.5563354E-2,7.8889705E-2,-3.8680223E-1,5.8465284E-1,-1.0085352E-2,-6.2253994E-1,-1.2545678E-1,7.571617E-1,-4.4091802E-2,-3.0127856E-1,3.232225E-2,-5.829391E-2,-6.936891E-1,-2.1067809E-1,1.9874036E-1,2.610507E-1,8.367122E-2,-4.9117768E-1,5.781113E-2,8.705894E-1,7.484588E-3,-2.3325716E-1,-5.6826584E-2,4.694593E-1,-1.0245248E-1,-2.636455E-1,-6.848405E-1,3.007557E-1,-4.4452122E-1,3.0766234E-1,7.981838E-2,-2.1974161E-1,2.6417153E-2,-3.8902108E-2,2.2106013E-1,-1.5410037E-1,1.3913636E-1,-2.6801428E-1,-3.264729E-2,-2.1739185E-1,4.4827662E-2,3.296524E-1,1.7467644E-3],"categories":[],"categories_nodes":[],"categories_segments":[],"categories_sizes":[],"default_left":[0,0,0,0,0,0,0,0,0,0,0,0,0,0,0,0,0,0,0,0,0,0,0,0,0,0,0,0,0,0,0,0,0,0,0,0,0,0,0,0,0,0,0,0,0],"id":7,"left_children":[1,3,5,-1,7,9,11,13,15,17,-1,19,21,-1,23,-1,25,-1,-1,27,29,31,33,-1,-1,35,-1,37,39,-1,41,-1,-1,-1,43,-1,-1,-1,-1,-1,-1,-1,-1,-1,-1],"loss_changes":[1.306359E0,8.6087084E-1,2.8815556E0,0E0,6.991054E-1,1.2049391E0,1.6967924E0,5.9597015E-2,1.4925028E0,1.4506245E-1,0E0,1.2192614E0,2.4951425E0,0E0,6.7561865E-2,0E0,9.517344E-1,0E0,0E0,3.2742953E-1,3.7369442E0,5.021906E-2,1.668299E0,0E0,0E0,7.4055284E-1,0E0,1.4979951E0,5.7566524E-1,0E0,9.768753E-1,0E0,0E0,0E0,2.5496953E0,0E0,0E0,0E0,0E0,0E0,0E0,0E0,0E0,0E0,0E0],"parents":[2147483647,0,0,1,1,2,2,4,4,5,5,6,6,7,7,8,8,9,9,11,11,12,12,14,14,16,16,19,19,20,20,21,21,22,22,25,25,27,27,28,28,30,30,34,34],"right_children":[2,4,6,-1,8,10,12,14,16,18,-1,20,22,-1,24,-1,26,-1,-1,28,30,32,34,-1,-1,36,-1,38,40,-1,42,-1,-1,-1,44,-1,-1,-1,-1,-1,-1,-1,-1,-1,-1],"split_conditions":[7E0,5.336E1,1E1,7.8889705E-2,2.0689656E-1,3.3333334E-1,1.5E1,4E0,3E0,1E0,-4.4091802E-2,7.017E1,3.1176E2,-5.829391E-2,4.0392E2,-2.1067809E-1,8.485E1,2.610507E-1,8.367122E-2,2E0,8.148E1,2.8827E2,3.5805E2,-2.3325716E-1,-5.6826584E-2,3.6302942E-1,-1.0245248E-1,8.501534E-2,2.1503161E-1,3.007557E-1,1E0,3.0766234E-1,7.981838E-2,-2.1974161E-1,3.8808E2,-3.8902108E-2,2.2106013E-1,-1.5410037E-1,1.3913636E-1,-2.6801428E-1,-3.264729E-2,-2.1739185E-1,4.4827662E-2,3.296524E-1,1.7467644E-3],"split_indices":[0,5,0,0,6,6,0,0,0,4,0,1,5,0,5,0,1,0,0,2,1,5,5,0,0,6,0,6,6,0,3,0,0,0,5,0,0,0,0,0,0,0,0,0,0],"split_type":[0,0,0,0,0,0,0,0,0,0,0,0,0,0,0,0,0,0,0,0,0,0,0,0,0,0,0,0,0,0,0,0,0,0,0,0,0,0,0,0,0,0,0,0,0],"sum_hessian":[1.5660112E2,1.3319066E1,1.4328206E2,1.7039064E0,1.161516E1,7.6652484E0,1.356168E2,5.380135E0,6.2350245E0,6.174475E0,1.4907736E0,1.6463728E1,1.1915308E2,1.2981284E0,4.082007E0,1.8238765E0,4.4111476E0,4.331525E0,1.8429503E0,1.0528205E1,5.9355226E0,2.448987E0,1.16704094E2,3.0354698E0,1.046537E0,3.0258987E0,1.3852489E0,5.926542E0,4.6016626E0,1.7148232E0,4.2206993E0,1.3949921E0,1.0539949E0,1.9712607E0,1.14732834E2,1.0927159E0,1.933183E0,4.629294E0,1.2972482E0,2.973995E0,1.6276678E0,2.7185369E0,1.5021623E0,1.1753052E0,1.1355753E2],"tree_param":{"num_deleted":"0","num_feature":"7","num_nodes":"45","size_leaf_vector":"1"}},{"base_weights":[-1.7315691E-3,5.696521E-2,-1.22826E-1,3.4430154E-2,2.4566491E-1,-1.93674E-1,-4.215342E-3,8.164068E-2,-2.0417494E-1,-1.0288634E-1,-2.4213782E-1,1.5945792E-1,-3.2776016E-1,-2.2479143E-2,2.3807678E-1,3.0421868E-1,-3.7436655E-1,-1.8829687E-1,2.1785218E-1,2.6468793E-1,-1.5442431E-1,-5.119535E-1,-3.018444E-2,3.1785548E-2,-2.1472327E-1,1.420141E-1,4.6478948E-1,3.0440085E-2,1.9503653E-1,-4.9421948E-1,1.55897E-1,-5.90204E-2,-5.1050735E-1,1.7182271E-1,-1.907809E-1,3.384956E-2,2.1777496E-1,-2.1732825E-1,-4.9879484E-2,-1.4389609E-1,1.1332948E-1,5.400506E-2,-3.9592803E-2,-5.30585E-3,1.67141E-1,1.422161E-1,-1.7385332E-1,-7.193787E-2,-2.782629E-1,1.2637141E-1,-5.7797298E-2,-7.762469E-2,4.4159185E-2,-9.174808E-3,-1.987479E-1,-1.5115522E-1,3.3204954E-2,-9.649572E-2,7.681356E-2],"categories":[],"categories_nodes":[],"categories_segments":[],"categories_sizes":[],"default_left":[0,0,0,0,0,0,0,0,0,0,0,0,0,0,0,0,0,0,0,0,0,0,0,0,0,0,0,0,0,0,0,0,0,0,0,0,0,0,0,0,0,0,0,0,0,0,0,0,0,0,0,0,0,0,0,0,0,0,0],"id":8,"left_children":[1,3,5,7,-1,9,11,13,15,17,-1,19,21,23,25,27,29,31,33,35,-1,37,39,41,-1,43,-1,45,-1,47,49,51,53,-1,55,57,-1,-1,-1,-1,-1,-1,-1,-1,-1,-1,-1,-1,-1,-1,-1,-1,-1,-1,-1,-1,-1,-1,-1],"loss_changes":[1.1174487E0,1.7902257E0,4.3045223E-1,1.1871717E0,0E0,1.7051425E0,1.1226977E0,1.4299085E0,1.6236677E0,8.3859205E-1,0E0,1.1363115E0,3.7468314E-1,2.032556E0,4.1930733E0,4.468963E-1,9.363674E-1,9.4991714E-1,1.0643941E0,1.3439132E0,0E0,1.9787073E-1,8.750283E-1,1.2497084E0,0E0,2.246996E0,0E0,1.3029084E0,0E0,1.0198967E0,3.82003E-1,7.762486E-1,4.6160698E-1,0E0,4.1548717E-1,8.41858E-1,0E0,0E0,0E0,0E0,0E0,0E0,0E0,0E0,0E0,0E0,0E0,0E0,0E0,0E0,0E0,0E0,0E0,0E0,0E0,0E0,0E0,0E0,0E0],"parents":[2147483647,0,0,1,1,2,2,3,3,5,5,6,6,7,7,8,8,9,9,11,11,12,12,13,13,14,14,15,15,16,16,17,17,18,18,19,19,21,21,22,22,23,23,25,25,27,27,29,29,30,30,31,31,32,32,34,34,35,35],"right_children":[2,4,6,8,-1,10,12,14,16,18,-1,20,22,24,26,28,30,32,34,36,-1,38,40,42,-1,44,-1,46,-1,48,50,52,54,-1,56,58,-1,-1,-1,-1,-1,-1,-1,-1,-1,-1,-1,-1,-1,-1,-1,-1,-1,-1,-1,-1,-1,-1,-1],"split_conditions":[1E0,1E0,1.85504E3,3E0,2.4566491E-1,1.5884E3,2.94075E3,5.0052524E-2,3.635E1,7.057E1,-2.4213782E-1,5.5E1,2E0,4.761905E-2,3.7E1,1.0166276E-1,3.18801E3,4.889E1,8.78553E1,4.4E1,-1.5442431E-1,7.057E1,4.5E1,5.641E1,-2.1472327E-1,1.26462E3,4.6478948E-1,2.752E1,1.9503653E-1,3.3E1,4.42656E3,4.987471E-2,4.6286866E-2,1.7182271E-1,8E0,3.368549E-2,2.1777496E-1,-2.1732825E-1,-4.9879484E-2,-1.4389609E-1,1.1332948E-1,5.400506E-2,-3.9592803E-2,-5.30585E-3,1.67141E-1,1.422161E-1,-1.7385332E-1,-7.193787E-2,-2.782629E-1,1.2637141E-1,-5.7797298E-2,-7.762469E-2,4.4159185E-2,-9.174808E-3,-1.987479E-1,-1.5115522E-1,3.3204954E-2,-9.649572E-2,7.681356E-2],"split_indices":[4,3,5,2,0,5,5,6,1,1,0,0,3,6,0,6,5,1,1,0,0,1,0,1,0,5,0,1,0,0,5,6,6,0,0,6,0,0,0,0,0,0,0,0,0,0,0,0,0,0,0,0,0,0,0,0,0,0,0],"split_type":[0,0,0,0,0,0,0,0,0,0,0,0,0,0,0,0,0,0,0,0,0,0,0,0,0,0,0,0,0,0,0,0,0,0,0,0,0,0,0,0,0,0,0,0,0,0,0,0,0,0,0,0,0,0,0,0,0,0,0],"sum_hessian":[1.5522885E2,1.04907684E2,5.032117E1,1.0290916E2,1.9985299E0,3.110739E1,1.9213783E1,8.645998E1,1.6449177E1,2.8114334E1,2.9930558E0,1.3095998E1,6.1177855E0,5.2424133E1,3.4035847E1,3.9280033E0,1.25211735E1,2.252816E1,5.586172E0,1.1853336E1,1.242661E0,3.3338106E0,2.783975E0,4.9503445E1,2.9206862E0,3.2745174E1,1.2906697E0,2.799908E0,1.1280955E0,1.0268261E1,2.2529118E0,1.6921951E1,5.6062093E0,2.774749E0,2.811423E0,8.615027E0,3.238309E0,1.3861933E0,1.9476173E0,1.2409536E0,1.5430214E0,2.5931702E1,2.3571745E1,2.4339148E1,8.406029E0,1.7499679E0,1.0499399E0,7.448338E0,2.8199232E0,1.1607504E0,1.0921615E0,8.466822E0,8.455131E0,1.6373075E0,3.9689016E0,1.0498306E0,1.7615926E0,3.1413753E0,5.4736524E0],"tree_param":{"num_deleted":"0","num_feature":"7","num_nodes":"59","size_leaf_vector":"1"}},{"base_weights":[-3.8979405E-3,-1.6856065E-1,2.9832287E-2,-1.18111506E-1,-2.0795874E-1,3.1155682E-1,-1.0432328E-2,-1.8688184E-1,2.1910907E-1,-3.0507391E-2,4.468297E-1,2.222521E-2,-3.28299E-1,1.4988394E-2,-3.1313843E-1,2.2773279E-1,-2.3563312E-2,-3.378385E-1,3.5641038E-1,-4.7282663E-1,-1.2489682E-1,-4.787976E-2,3.5774788E-1,-4.3907794E-1,7.609051E-2,5.5021558E-2,-1.8015179E-1,-6.1877463E-2,-2.4971753E-1,1.538735E-1,-1.3131112E-1,-3.650926E-3,-1.9405088E-1,1.565156E-1,-4.5185864E-2,-1.7810385E-1,1.038005E-1,1.463597E-1,-1.4675997E-1],"categories":[],"categories_nodes":[],"categories_segments":[],"categories_sizes":[],"default_left":[0,0,0,0,0,0,0,0,0,0,0,0,0,0,0,0,0,0,0,0,0,0,0,0,0,0,0,0,0,0,0,0,0,0,0,0,0,0,0],"id":9,"left_children":[1,3,5,7,-1,-1,9,11,-1,13,15,17,19,21,23,-1,-1,25,-1,27,29,31,33,35,37,-1,-1,-1,-1,-1,-1,-1,-1,-1,-1,-1,-1,-1,-1],"loss_changes":[8.60469E-1,6.1517936E-1,5.2372346E0,1.6087385E0,0E0,0E0,1.158631E0,7.210268E-1,0E0,1.5531647E0,9.3076026E-1,4.881981E0,3.6608243E-1,2.272863E0,8.5413027E-1,0E0,0E0,1.3333088E0,0E0,6.042551E-1,1.694161E0,1.9029648E0,1.4408503E0,1.7587051E0,1.389792E0,0E0,0E0,0E0,0E0,0E0,0E0,0E0,0E0,0E0,0E0,0E0,0E0,0E0,0E0],"parents":[2147483647,0,0,1,1,2,2,3,3,6,6,7,7,9,9,10,10,11,11,12,12,13,13,14,14,17,17,19,19,20,20,21,21,22,22,23,23,24,24],"right_children":[2,4,6,8,-1,-1,10,12,-1,14,16,18,20,22,24,-1,-1,26,-1,28,30,32,34,36,38,-1,-1,-1,-1,-1,-1,-1,-1,-1,-1,-1,-1,-1,-1],"split_conditions":[2.6919872E-3,4.5775E3,1E0,3.74448E3,-2.0795874E-1,3.1155682E-1,4.63632E3,4.627E1,2.1910907E-1,2.9162778E3,4.963671E3,3.343E1,6.905E1,2.1585818E3,4.987471E-2,2.2773279E-1,-2.3563312E-2,3.077753E2,3.5641038E-1,6.371317E1,7.505E1,2.0592E3,3E0,9.1169E1,8.404E1,5.5021558E-2,-1.8015179E-1,-6.1877463E-2,-2.4971753E-1,1.538735E-1,-1.3131112E-1,-3.650926E-3,-1.9405088E-1,1.565156E-1,-4.5185864E-2,-1.7810385E-1,1.038005E-1,1.463597E-1,-1.4675997E-1],"split_indices":[6,5,2,5,0,0,5,1,0,5,5,1,1,5,6,0,0,5,0,1,1,5,2,1,1,0,0,0,0,0,0,0,0,0,0,0,0,0,0],"split_type":[0,0,0,0,0,0,0,0,0,0,0,0,0,0,0,0,0,0,0,0,0,0,0,0,0,0,0,0,0,0,0,0,0,0,0,0,0,0,0],"sum_hessian":[1.5301932E2,2.5336315E1,1.2768301E2,2.4231348E1,1.1049668E0,3.949501E0,1.23733505E2,2.313589E1,1.095459E0,1.1942376E2,4.3097496E0,9.674092E0,1.3461797E1,1.03680954E2,1.5742802E1,2.4240277E0,1.8857218E0,7.933896E0,1.7401965E0,7.095495E0,6.3663015E0,8.833844E1,1.5342521E1,1.1797509E1,3.945292E0,2.7595458E0,5.1743507E0,4.9783564E0,2.1171389E0,1.8843776E0,4.481924E0,8.433092E1,4.0075216E0,1.1580909E1,3.761612E0,1.00602045E1,1.737305E0,2.3618279E0,1.5834641E0],"tree_param":{"num_deleted":"0","num_feature":"7","num_nodes":"39","size_leaf_vector":"1"}},{"base_weights":[-1.9168739E-3,-2.4059857E-1,2.117122E-2,-4.7038284E-1,-1.2458265E-2,4.9059993E-1,-8.800574E-3,-2.4976759E-1,-1.990831E-1,2.0879482E-1,-1.9807239E-1,6.2450737E-1,-2.8342647E-2,-2.371791E-1,2.3566823E-2,9.203526E-2,-5.803581E-1,4.9223274E-1,-1.7526942E-1,4.1783485E-1,2.7338573E-1,-3.461819E-1,2.317873E-1,7.366285E-1,3.0551958E-3,-2.1121955E-1,-4.5208633E-2,5.2222994E-4,6.8247056E-1,5.980689E-1,-5.9430357E-3,-1.07649826E-1,-7.219148E-1,2.2897254E-1,-1.0849535E-1,2.6465935E-1,6.304575E-2,-1.7443603E-1,1.799267E-2,1.6648045E-2,2.7441794E-1,2.827959E-1,-1.3137433E-2,-9.319333E-2,1.2288881E-1,-2.5585252E-1,-3.9808195E-2,1.9885232E-1,-2.712686E-3],"categories":[],"categories_nodes":[],"categories_segments":[],"categories_sizes":[],"default_left":[0,0,0,0,0,0,0,0,0,0,0,0,0,0,0,0,0,0,0,0,0,0,0,0,0,0,0,0,0,0,0,0,0,0,0,0,0,0,0,0,0,0,0,0,0,0,0,0,0],"id":10,"left_children":[1,3,5,7,9,11,13,-1,15,17,-1,19,-1,21,23,-1,25,27,-1,29,-1,31,33,35,37,-1,-1,-1,39,41,-1,43,45,-1,-1,-1,-1,-1,47,-1,-1,-1,-1,-1,-1,-1,-1,-1,-1],"loss_changes":[8.415157E-1,7.001727E-1,1.9644028E0,4.9087286E-1,1.253686E0,7.1542907E-1,9.808534E-1,0E0,1.1684378E0,1.762765E0,0E0,3.1125069E-2,0E0,9.2205983E-1,1.7011988E0,0E0,6.7913055E-2,5.006019E-1,0E0,4.7609532E-1,0E0,1.1558033E0,1.4444532E0,6.386316E-2,1.0076772E0,0E0,0E0,0E0,5.131124E-1,9.704013E-1,0E0,1.1346557E0,2.8561687E-1,0E0,0E0,0E0,0E0,0E0,1.9644369E0,0E0,0E0,0E0,0E0,0E0,0E0,0E0,0E0,0E0,0E0],"parents":[2147483647,0,0,1,1,2,2,3,3,4,4,5,5,6,6,8,8,9,9,11,11,13,13,14,14,16,16,17,17,19,19,21,21,22,22,23,23,24,24,28,28,29,29,31,31,32,32,38,38],"right_children":[2,4,6,8,10,12,14,-1,16,18,-1,20,-1,22,24,-1,26,28,-1,30,-1,32,34,36,38,-1,-1,-1,40,42,-1,44,46,-1,-1,-1,-1,-1,48,-1,-1,-1,-1,-1,-1,-1,-1,-1,-1],"split_conditions":[7E0,2.0689656E-1,1E1,1.9861698E1,8.916E1,3.3333334E-1,1.5E1,-2.4976759E-1,5.4252632E1,2E0,-1.9807239E-1,2.2430849E-1,-2.8342647E-2,2.0689656E-1,3.1176E2,9.203526E-2,6E0,3E0,-1.7526942E-1,2E0,2.7338573E-1,2E0,2.6666668E-1,2.8827E2,3.5805E2,-2.1121955E-1,-4.5208633E-2,5.2222994E-4,4E-1,4.223425E2,-5.9430357E-3,8.501534E-2,1.7560096E-1,2.2897254E-1,-1.0849535E-1,2.6465935E-1,6.304575E-2,-1.7443603E-1,4.5145E2,1.6648045E-2,2.7441794E-1,2.827959E-1,-1.3137433E-2,-9.319333E-2,1.2288881E-1,-2.5585252E-1,-3.9808195E-2,1.9885232E-1,-2.712686E-3],"split_indices":[0,6,0,1,1,6,0,0,1,3,0,6,0,6,5,0,0,0,0,2,0,2,6,5,5,0,0,0,6,5,0,6,6,0,0,0,0,0,5,0,0,0,0,0,0,0,0,0,0],"split_type":[0,0,0,0,0,0,0,0,0,0,0,0,0,0,0,0,0,0,0,0,0,0,0,0,0,0,0,0,0,0,0,0,0,0,0,0,0,0,0,0,0,0,0,0,0,0,0,0,0],"sum_hessian":[1.5078128E2,1.2467986E1,1.3831331E2,5.6826115E0,6.7853746E0,7.3785863E0,1.3093471E2,1.5477037E0,4.1349077E0,5.562989E0,1.2223852E0,5.9495125E0,1.4290738E0,1.5467947E1,1.1546677E2,1.8610631E0,2.2738447E0,4.377656E0,1.1853331E0,4.8856025E0,1.06391E0,1.2763192E1,2.7047548E0,2.2523918E0,1.1321438E2,1.269646E0,1.0041988E0,1.5054057E0,2.8722503E0,3.2008462E0,1.6847565E0,8.5939045E0,4.169288E0,1.2759457E0,1.4288092E0,1.2351972E0,1.0171946E0,1.8761002E0,1.1133827E2,1.1112776E0,1.7609729E0,1.7778027E0,1.4230434E0,6.45877E0,2.1351345E0,3.0452232E0,1.1240649E0,3.5336783E0,1.07804596E2],"tree_param":{"num_deleted":"0","num_feature":"7","num_nodes":"49","size_leaf_vector":"1"}},{"base_weights":[-4.102329E-4,-2.1924287E-1,2.0062618E-2,6.844213E-2,-3.059315E-1,4.1716543E-1,-4.8588E-3,-4.905312E-1,-1.009313E-1,5.325929E-1,-2.3484001E-2,-3.4267858E-1,1.2419176E-2,-3.5078876E-2,-5.574792E-1,-1.6934773E-1,1.4755048E-1,2.8415272E-1,2.2165437E-1,-5.355942E-1,3.62839E-2,5.2216035E-1,-2.976538E-3,-1.8647191E-1,-5.051017E-2,1.6195989E-1,-8.514862E-2,1.4864701E-1,-2.0018967E-2,-5.039708E-2,-2.0615162E-1,-2.5152652E-2,2.3839767E-1,5.911876E-2,-1.339029E-1,6.1651744E-2,-1.3234328E-1,2.272816E-3,1.01921946E-1,-1.4289406E-1,-2.0526208E-2],"categories":[],"categories_nodes":[],"categories_segments":[],"categories_sizes":[],"default_left":[0,0,0,0,0,0,0,0,0,0,0,0,0,0,0,0,0,0,0,0,0,0,0,0,0,0,0,0,0,0,0,0,0,0,0,0,0,0,0,0,0],"id":11,"left_children":[1,3,5,-1,7,9,11,13,15,17,-1,19,21,-1,23,-1,25,27,-1,29,-1,31,33,-1,-1,-1,35,-1,-1,-1,-1,-1,-1,37,39,-1,-1,-1,-1,-1,-1],"loss_changes":[6.771584E-1,5.7128525E-1,1.3700477E0,0E0,3.765626E-1,5.091784E-1,7.692329E-1,7.6511264E-2,8.4280455E-1,1.3635194E-1,0E0,6.3826704E-1,9.8761946E-1,0E0,8.545518E-3,0E0,5.102337E-1,3.8088408E-1,0E0,1.4712346E-1,0E0,6.758678E-1,1.0075603E0,0E0,0E0,0E0,5.1032823E-1,0E0,0E0,0E0,0E0,0E0,0E0,1.2137954E0,8.611942E-1,0E0,0E0,0E0,0E0,0E0,0E0],"parents":[2147483647,0,0,1,1,2,2,4,4,5,5,6,6,7,7,8,8,9,9,11,11,12,12,14,14,16,16,17,17,19,19,21,21,22,22,26,26,33,33,34,34],"right_children":[2,4,6,-1,8,10,12,14,16,18,-1,20,22,-1,24,-1,26,28,-1,30,-1,32,34,-1,-1,-1,36,-1,-1,-1,-1,-1,-1,38,40,-1,-1,-1,-1,-1,-1],"split_conditions":[7E0,5.336E1,1E1,6.844213E-2,2.0689656E-1,3.3333334E-1,1.2E1,4E0,3E0,2.0689656E-1,-2.3484001E-2,7.017E1,2.8827E2,-3.5078876E-2,7.233E1,-1.6934773E-1,4.492E1,1.25E-1,2.2165437E-1,2E0,3.62839E-2,1.8667902E2,1E0,-1.8647191E-1,-5.051017E-2,1.6195989E-1,3E0,1.4864701E-1,-2.0018967E-2,-5.039708E-2,-2.0615162E-1,-2.5152652E-2,2.3839767E-1,8.833912E-2,6.583904E2,6.1651744E-2,-1.3234328E-1,2.272816E-3,1.01921946E-1,-1.4289406E-1,-2.0526208E-2],"split_indices":[0,5,0,0,6,6,0,0,0,6,0,1,5,0,1,0,1,6,0,2,0,5,4,0,0,0,2,0,0,0,0,0,0,6,5,0,0,0,0,0,0],"split_type":[0,0,0,0,0,0,0,0,0,0,0,0,0,0,0,0,0,0,0,0,0,0,0,0,0,0,0,0,0,0,0,0,0,0,0,0,0,0,0,0,0],"sum_hessian":[1.4916531E2,1.1930647E1,1.3723468E2,1.6716841E0,1.0258963E1,7.174561E0,1.3006012E2,4.6651917E0,5.593771E0,5.7580814E0,1.4164795E0,5.41196E0,1.24648155E2,1.1263263E0,3.5388653E0,1.5082512E0,4.08552E0,3.6904736E0,2.067608E0,3.7121093E0,1.6998509E0,2.6893609E0,1.2195879E2,2.5254612E0,1.0134043E0,1.029623E0,3.0558968E0,2.0460243E0,1.6444495E0,1.6992922E0,2.0128171E0,1.0489497E0,1.6404113E0,8.309652E1,3.886227E1,1.9150631E0,1.1408337E0,7.1069855E1,1.2026667E1,5.2316585E0,3.363061E1],"tree_param":{"num_deleted":"0","num_feature":"7","num_nodes":"41","size_leaf_vector":"1"}},{"base_weights":[-9.400062E-4,-1.9616973E-2,1.7477879E-1,4.0852614E-3,-4.815594E-1,-5.772804E-3,2.8173563E-1,-8.573823E-3,2.22485E-1,-3.6347114E-2,-5.7314223E-1,4.243404E-1,-2.6581734E-1,3.37095E-1,-3.2818682E-2,-2.546007E-1,-2.4301551E-1,-6.209306E-2,2.616843E-1,1.6747409E-1,-6.8585455E-1,3.1472944E-2,7.175363E-1,-1.8675354E-1,-1.3598364E-2,1.2822131E-2,-1.4190991E-1,-2.14139E-1,2.0255496E-1,-2.6749054E-1,-4.133601E-2,-5.529685E-2,1.1123074E-1,3.013272E-1,3.199846E-2,3.0367721E-3,-1.4563483E-1,-1.6190863E-1,4.6796087E-2],"categories":[],"categories_nodes":[],"categories_segments":[],"categories_sizes":[],"default_left":[0,0,0,0,0,0,0,0,0,0,0,0,0,0,0,0,0,0,0,0,0,0,0,0,0,0,0,0,0,0,0,0,0,0,0,0,0,0,0],"id":12,"left_children":[1,3,5,7,9,11,-1,13,-1,-1,15,17,19,21,23,-1,25,-1,-1,27,29,31,33,-1,35,-1,-1,37,-1,-1,-1,-1,-1,-1,-1,-1,-1,-1,-1],"loss_changes":[4.9252468E-1,1.4867643E0,1.9953022E0,1.2199367E0,1.4929259E-1,1.5285531E0,0E0,1.0903094E0,0E0,0E0,2.5001848E-1,1.6381918E0,1.6624523E0,9.691014E-1,1.3657779E0,0E0,2.623098E-1,0E0,0E0,1.1112628E0,3.862357E-1,4.9121398E-1,5.506915E-1,0E0,1.3306254E0,0E0,0E0,5.1889074E-1,0E0,0E0,0E0,0E0,0E0,0E0,0E0,0E0,0E0,0E0,0E0],"parents":[2147483647,0,0,1,1,2,2,3,3,4,4,5,5,7,7,10,10,11,11,12,12,13,13,14,14,16,16,19,19,20,20,21,21,22,22,24,24,27,27],"right_children":[2,4,6,8,10,12,-1,14,-1,-1,16,18,20,22,24,-1,26,-1,-1,28,30,32,34,-1,36,-1,-1,38,-1,-1,-1,-1,-1,-1,-1,-1,-1,-1,-1],"split_conditions":[2.0689656E-1,1.6666667E-1,6.984007E2,1.539208E-1,3.721E1,4.524E1,2.8173563E-1,1.541E1,2.22485E-1,-3.6347114E-2,5.9989468E1,2.877E1,3E0,4.347826E-2,1.639E1,-2.546007E-1,7.805E1,-6.209306E-2,2.616843E-1,4.7446E2,5.546722E-1,1.394E1,7.1428575E-2,-1.8675354E-1,1.3333334E-1,1.2822131E-2,-1.4190991E-1,7.563E1,2.0255496E-1,-2.6749054E-1,-4.133601E-2,-5.529685E-2,1.1123074E-1,3.013272E-1,3.199846E-2,3.0367721E-3,-1.4563483E-1,-1.6190863E-1,4.6796087E-2],"split_indices":[6,6,5,6,1,1,0,1,0,0,1,1,2,6,1,0,1,0,0,5,6,1,6,0,6,0,0,1,0,0,0,0,0,0,0,0,0,0,0],"split_type":[0,0,0,0,0,0,0,0,0,0,0,0,0,0,0,0,0,0,0,0,0,0,0,0,0,0,0,0,0,0,0,0,0,0,0,0,0,0,0],"sum_hessian":[1.480286E2,1.3460945E2,1.3419136E1,1.2898253E2,5.6269283E0,1.1657791E1,1.7613444E0,1.277777E2,1.2048181E0,1.6108268E0,4.0161014E0,4.154484E0,7.503308E0,7.529061E0,1.2024864E2,1.3329079E0,2.6831934E0,1.9475658E0,2.2069182E0,3.9893558E0,3.5139518E0,4.775477E0,2.7535837E0,2.804875E0,1.1744377E2,1.5597129E0,1.1234804E0,2.6076064E0,1.3817493E0,2.0989854E0,1.4149666E0,3.1981628E0,1.5773141E0,1.4352856E0,1.3182981E0,1.12753944E2,4.6898284E0,1.1435871E0,1.4640193E0],"tree_param":{"num_deleted":"0","num_feature":"7","num_nodes":"39","size_leaf_vector":"1"}},{"base_weights":[-4.3175448E-4,5.5915765E-2,-5.921373E-2,-1.7497076E-2,5.221544E-1,3.642047E-1,-1.0633012E-1,5.719701E-2,-3.1145272E-1,-1.0371304E-1,7.5927216E-1,-1.6116902E-1,7.3164755E-1,-7.775078E-1,-5.168614E-2,1.8889442E-2,5.937461E-1,-3.8792652E-1,2.8738769E-2,1.0464215E0,-5.233735E-2,4.189571E-2,-1.0093E-1,2.8765717E-1,5.6743443E-2,-2.9195797E-1,-4.7707517E-2,-1.0937076E-1,1.7415649E-1,5.6013767E-2,-4.6451104E-1,-6.3404307E-4,2.8270382E-1,-6.6508245E-1,-1.3607319E-1,3.8976204E-1,4.4232628E-1,-1.3353598E-2,-4.3384066E-1,9.1166174E-1,-8.8997506E-2,2.516849E-3,2.8281328E-1,-2.1796529E-1,3.419018E-2,4.79658E-2,-3.105247E-1,1.0442884E-1,-1.328915E-1,-4.2868447E-2,2.3129554E-1,-2.6608381E-2,1.0586738E-1,-1.8476615E-2,-2.4868867E-1,4.8667107E-2,3.7146226E-1,2.4992637E-2,-1.3716629E-1],"categories":[],"categories_nodes":[],"categories_segments":[],"categories_sizes":[],"default_left":[0,0,0,0,0,0,0,0,0,0,0,0,0,0,0,0,0,0,0,0,0,0,0,0,0,0,0,0,0,0,0,0,0,0,0,0,0,0,0,0,0,0,0,0,0,0,0,0,0,0,0,0,0,0,0,0,0,0,0],"id":13,"left_children":[1,3,5,7,9,11,13,15,17,-1,19,21,23,25,27,29,31,33,-1,35,-1,-1,-1,-1,-1,-1,-1,37,39,41,43,-1,-1,45,47,-1,49,51,53,55,57,-1,-1,-1,-1,-1,-1,-1,-1,-1,-1,-1,-1,-1,-1,-1,-1,-1,-1],"loss_changes":[4.9303052E-1,2.6105852E0,1.4920537E0,1.4808352E0,2.3968558E0,1.5697293E0,2.3924513E0,1.0982041E0,4.624561E-1,0E0,2.4505749E0,2.5337493E-1,3.8637757E-1,4.4097996E-1,8.320478E-1,9.486567E-1,7.422997E-1,7.258378E-1,0E0,4.3507147E-1,0E0,0E0,0E0,0E0,0E0,0E0,0E0,1.5620141E0,2.6201391E0,2.0459807E0,6.549389E-1,0E0,0E0,1.7864816E0,1.2514474E0,0E0,7.769835E-1,1.131274E0,1.6344559E0,6.6285944E-1,7.0765287E-1,0E0,0E0,0E0,0E0,0E0,0E0,0E0,0E0,0E0,0E0,0E0,0E0,0E0,0E0,0E0,0E0,0E0,0E0],"parents":[2147483647,0,0,1,1,2,2,3,3,4,4,5,5,6,6,7,7,8,8,10,10,11,11,12,12,13,13,14,14,15,15,16,16,17,17,19,19,27,27,28,28,29,29,30,30,33,33,34,34,36,36,37,37,38,38,39,39,40,40],"right_children":[2,4,6,8,10,12,14,16,18,-1,20,22,24,26,28,30,32,34,-1,36,-1,-1,-1,-1,-1,-1,-1,38,40,42,44,-1,-1,46,48,-1,50,52,54,56,58,-1,-1,-1,-1,-1,-1,-1,-1,-1,-1,-1,-1,-1,-1,-1,-1,-1,-1],"split_conditions":[3.1E1,1.97912E3,6.984007E2,7.965E1,3.4839608E-2,5.430372E2,9.0376E2,7.583E1,3.6302942E-1,-1.0371304E-1,1.09331325E-1,4.5145E2,1.621E1,4.7E1,3.74448E3,7.229E1,1.8756537E-1,8.725E1,2.8738769E-2,7.261215E-2,-5.233735E-2,4.189571E-2,-1.0093E-1,2.8765717E-1,5.6743443E-2,-2.9195797E-1,-4.7707517E-2,6.783E1,8.038E1,7.057E1,1E0,-6.3404307E-4,2.8270382E-1,5.4054055E-2,9.0128876E1,3.8976204E-1,8E-2,2.77487E3,3.0303031E-2,7.629823E1,9.636E1,2.516849E-3,2.8281328E-1,-2.1796529E-1,3.419018E-2,4.79658E-2,-3.105247E-1,1.0442884E-1,-1.328915E-1,-4.2868447E-2,2.3129554E-1,-2.6608381E-2,1.0586738E-1,-1.8476615E-2,-2.4868867E-1,4.8667107E-2,3.7146226E-1,2.4992637E-2,-1.3716629E-1],"split_indices":[0,5,5,1,6,5,5,1,6,0,6,5,1,0,5,1,6,1,0,6,0,0,0,0,0,0,0,1,1,1,3,0,0,6,1,0,6,5,6,1,1,0,0,0,0,0,0,0,0,0,0,0,0,0,0,0,0,0,0],"split_type":[0,0,0,0,0,0,0,0,0,0,0,0,0,0,0,0,0,0,0,0,0,0,0,0,0,0,0,0,0,0,0,0,0,0,0,0,0,0,0,0,0,0,0,0,0,0,0,0,0,0,0,0,0,0,0,0,0,0,0],"sum_hessian":[1.4685243E2,7.500374E1,7.1848694E1,6.563196E1,9.371781E0,6.5205865E0,6.532811E1,5.2976147E1,1.26558075E1,1.9128121E0,7.4589696E0,2.9146154E0,3.605971E0,3.9223464E0,6.140576E1,5.041212E1,2.5640283E0,1.0694941E1,1.9608673E0,5.612325E0,1.8466444E0,1.1477766E0,1.7668387E0,2.000611E0,1.6053602E0,2.543938E0,1.3784084E0,4.932334E1,1.2082423E1,4.763775E1,2.7743716E0,1.3132447E0,1.2507834E0,4.3105617E0,6.3843784E0,3.1454415E0,2.4668837E0,3.8863888E1,1.0459451E1,2.5293627E0,9.553061E0,4.616756E1,1.4701862E0,1.7332655E0,1.0411061E0,1.5105181E0,2.8000436E0,2.424771E0,3.9596076E0,1.0904355E0,1.3764482E0,3.286167E1,6.0022173E0,5.980744E0,4.478707E0,1.2218789E0,1.3074837E0,7.034905E0,2.5181553E0],"tree_param":{"num_deleted":"0","num_feature":"7","num_nodes":"59","size_leaf_vector":"1"}},{"base_weights":[2.7878813E-3,-8.233757E-2,4.2357303E-2,-7.1009467E-3,-4.4842735E-1,7.250299E-1,1.28962295E-2,-7.129592E-2,6.50954E-1,-6.1431104E-1,2.04639E-3,2.537067E-1,5.3138375E-2,-3.56151E-1,3.3511583E-2,-2.733041E-1,5.2205242E-2,1.630549E-2,3.066572E-1,-1.5184651E-1,-2.7526584E-1,5.7689894E-2,-5.8584705E-2,1.5103458E-1,-2.3480515E-1,5.1864693E-3,5.3801E-1,1.3263848E-1,-4.3252945E-1,6.937786E-1,-1.5367864E-1,-1.1476218E-1,5.840277E-2,-7.0926145E-2,1.3105941E-1,5.2139144E-2,-2.9992804E-1,2.732944E-1,-5.4747995E-2,-1.0057991E-1,1.331778E-1,-2.5413988E-2,-1.6304536E-1,4.381343E-1,3.937857E-2,-2.0552738E-2,-2.028615E-1,-7.0187E-4,1.6156283E-1,-1.7111097E-1,4.094524E-2],"categories":[],"categories_nodes":[],"categories_segments":[],"categories_sizes":[],"default_left":[0,0,0,0,0,0,0,0,0,0,0,0,0,0,0,0,0,0,0,0,0,0,0,0,0,0,0,0,0,0,0,0,0,0,0,0,0,0,0,0,0,0,0,0,0,0,0,0,0,0,0],"id":14,"left_children":[1,3,5,7,9,11,13,15,17,19,21,-1,-1,23,25,27,29,-1,-1,31,-1,-1,-1,33,-1,35,37,39,41,43,45,-1,-1,-1,-1,47,49,-1,-1,-1,-1,-1,-1,-1,-1,-1,-1,-1,-1,-1,-1],"loss_changes":[4.9461222E-1,1.2805566E0,2.0058396E0,1.7225786E0,5.938039E-1,1.2304211E-1,7.504475E-1,9.3867576E-1,7.4740005E-1,6.738825E-1,1.5509087E-1,0E0,0E0,1.2477974E0,1.3240114E0,9.764104E-1,3.2548947E0,0E0,0E0,3.5384688E-1,0E0,0E0,0E0,4.602752E-1,0E0,1.2895337E0,1.4900312E0,8.43764E-1,3.571483E-1,2.3836975E0,7.931243E-1,0E0,0E0,0E0,0E0,2.065909E0,1.494965E0,0E0,0E0,0E0,0E0,0E0,0E0,0E0,0E0,0E0,0E0,0E0,0E0,0E0,0E0],"parents":[2147483647,0,0,1,1,2,2,3,3,4,4,5,5,6,6,7,7,8,8,9,9,10,10,13,13,14,14,15,15,16,16,19,19,23,23,25,25,26,26,27,27,28,28,29,29,30,30,35,35,36,36],"right_children":[2,4,6,8,10,12,14,16,18,20,22,-1,-1,24,26,28,30,-1,-1,32,-1,-1,-1,34,-1,36,38,40,42,44,46,-1,-1,-1,-1,48,50,-1,-1,-1,-1,-1,-1,-1,-1,-1,-1,-1,-1,-1,-1],"split_conditions":[2.7203219E-2,8.148E1,3.0303031E-2,7.638E1,9.343E1,1E0,3.368549E-2,3.458E1,4.3E1,1E0,4.3E1,2.537067E-1,5.3138375E-2,4.956E1,5.6E1,3.8808E2,4.594E1,1.630549E-2,3.066572E-1,3.5E1,-2.7526584E-1,5.7689894E-2,-5.8584705E-2,1.639E1,-2.3480515E-1,2.63671E3,5.0847456E-2,7E0,1.837E1,4E1,5.5E1,-1.1476218E-1,5.840277E-2,-7.0926145E-2,1.3105941E-1,2.1585818E3,3.69622E3,2.732944E-1,-5.4747995E-2,-1.0057991E-1,1.331778E-1,-2.5413988E-2,-1.6304536E-1,4.381343E-1,3.937857E-2,-2.0552738E-2,-2.028615E-1,-7.0187E-4,1.6156283E-1,-1.7111097E-1,4.094524E-2],"split_indices":[6,1,6,1,1,3,6,1,0,2,0,0,0,1,0,5,1,0,0,0,0,0,0,1,0,5,6,0,1,0,0,0,0,0,0,5,5,0,0,0,0,0,0,0,0,0,0,0,0,0,0],"split_type":[0,0,0,0,0,0,0,0,0,0,0,0,0,0,0,0,0,0,0,0,0,0,0,0,0,0,0,0,0,0,0,0,0,0,0,0,0,0,0,0,0,0,0,0,0,0,0,0,0,0,0],"sum_hessian":[1.4480504E2,4.5607998E1,9.9197044E1,3.867843E1,6.929568E0,3.1270573E0,9.6069984E1,3.605302E1,2.625409E0,4.7987595E0,2.1308084E0,2.1172843E0,1.0097731E0,4.221553E0,9.1848434E1,1.3218628E1,2.2834393E1,1.4467653E0,1.1786436E0,2.494785E0,2.3039746E0,1.0978291E0,1.0329791E0,2.2235065E0,1.9980463E0,8.79223E1,3.9261265E0,3.7711406E0,9.447487E0,4.971742E0,1.786265E1,1.4353033E0,1.0594817E0,1.0173323E0,1.2061743E0,7.691528E1,1.1007024E1,2.412776E0,1.5133505E0,1.4757974E0,2.2953432E0,2.7114055E0,6.7360816E0,1.4285113E0,3.543231E0,1.6331757E1,1.530894E0,7.006318E1,6.8521028E0,6.6062317E0,4.4007926E0],"tree_param":{"num_deleted":"0","num_feature":"7","num_nodes":"51","size_leaf_vector":"1"}},{"base_weights":[3.980724E-3,-2.3279051E-1,1.7017841E-2,-1.5012172E-1,5.5985358E-2,3.0185884E-1,6.813324E-4,4.4171843E-1,-1.4490534E-1,2.8165549E-2,2.0910335E-1,-1.4460658E-1,1.370152E-2,9.861348E-3,1.9382927E-1,1.13720715E-1,-1.7114468E-1,7.856791E-2,-5.9156105E-2,-1.3408422E-1,5.8536556E-2,-3.164396E-2,2.364469E-1,-3.0336198E-1,3.638796E-2,1.01607166E-1,-7.579024E-2,1.8011333E-1,-2.253208E-2,3.020568E-2,3.0968007E-1,-2.5512603E-1,-1.5875591E-2,-3.5723343E-2,7.679771E-2],"categories":[],"categories_nodes":[],"categories_segments":[],"categories_sizes":[],"default_left":[0,0,0,0,0,0,0,0,0,0,0,0,0,0,0,0,0,0,0,0,0,0,0,0,0,0,0,0,0,0,0,0,0,0,0],"id":15,"left_children":[1,3,5,-1,7,9,11,13,-1,15,-1,-1,17,-1,-1,-1,19,21,23,-1,25,27,29,31,33,-1,-1,-1,-1,-1,-1,-1,-1,-1,-1],"loss_changes":[4.4913247E-1,6.149311E-1,6.4019334E-1,0E0,1.1598226E0,7.874595E-1,8.30928E-1,2.44124E-1,0E0,4.4611365E-1,0E0,0E0,6.1282444E-1,0E0,0E0,0E0,2.900267E-1,1.1995051E0,1.43853E0,0E0,3.6077183E-1,1.1775388E0,2.9515877E0,2.326895E0,1.5623319E0,0E0,0E0,0E0,0E0,0E0,0E0,0E0,0E0,0E0,0E0],"parents":[2147483647,0,0,1,1,2,2,4,4,5,5,6,6,7,7,9,9,12,12,16,16,17,17,18,18,20,20,21,21,22,22,23,23,24,24],"right_children":[2,4,6,-1,8,10,12,14,-1,16,-1,-1,18,-1,-1,-1,20,22,24,-1,26,28,30,32,34,-1,-1,-1,-1,-1,-1,-1,-1,-1,-1],"split_conditions":[1.6182E2,1.9861698E1,1.541E1,-1.5012172E-1,4.524E1,4.347826E-2,1.639E1,2.818131E1,-1.4490534E-1,3.6E1,2.0910335E-1,-1.4460658E-1,2E0,9.861348E-3,1.9382927E-1,1.13720715E-1,5.430372E2,2.7203219E-2,5.7223428E-2,-1.3408422E-1,6.583904E2,3.077753E2,3.3E1,4.2E1,2.7E1,1.01607166E-1,-7.579024E-2,1.8011333E-1,-2.253208E-2,3.020568E-2,3.0968007E-1,-2.5512603E-1,-1.5875591E-2,-3.5723343E-2,7.679771E-2],"split_indices":[5,1,1,0,1,6,1,1,0,0,0,0,2,0,0,0,5,6,6,0,5,5,0,0,0,0,0,0,0,0,0,0,0,0,0],"split_type":[0,0,0,0,0,0,0,0,0,0,0,0,0,0,0,0,0,0,0,0,0,0,0,0,0,0,0,0,0,0,0,0,0,0,0],"sum_hessian":[1.432169E2,6.5945845E0,1.3662233E2,3.0423331E0,3.5522513E0,6.462666E0,1.3015965E2,2.1757116E0,1.3765397E0,4.451035E0,2.011631E0,2.4725509E0,1.276871E2,1.1120205E0,1.0636911E0,1.2856423E0,3.1653926E0,6.750652E1,6.0180584E1,1.0084695E0,2.1569233E0,4.022553E1,2.728099E1,1.6312233E1,4.3868355E1,1.0884907E0,1.0684325E0,1.7637794E0,3.846175E1,2.4267624E1,3.0133684E0,4.3702908E0,1.1941941E1,2.5953037E1,1.7915316E1],"tree_param":{"num_deleted":"0","num_feature":"7","num_nodes":"35","size_leaf_vector":"1"}},{"base_weights":[3.7534533E-3,-1.35254245E-2,1.6882865E-1,1.5096922E-3,-5.0615364E-1,2.065057E-2,2.2250423E-1,-3.6807442E-1,1.2360629E-2,-4.658683E-2,-1.9928995E-1,3.4548935E-1,-1.9772077E-1,8.342962E-3,-1.6206533E-1,1.8605043E-1,-1.9702734E-3,-3.3735104E-2,6.6393423E-1,1.621833E-1,-5.665812E-1,-1.8722099E-1,1.0481375E-2,2.4832653E-2,2.745507E-1,-1.7459576E-1,1.771177E-1,-2.3234335E-1,-2.3858309E-2,2.1757112E-1,-7.644775E-4,-1.1226383E-1,2.4562834E-2],"categories":[],"categories_nodes":[],"categories_segments":[],"categories_sizes":[],"default_left":[0,0,0,0,0,0,0,0,0,0,0,0,0,0,0,0,0,0,0,0,0,0,0,0,0,0,0,0,0,0,0,0,0],"id":16,"left_children":[1,3,5,7,9,11,-1,13,15,-1,-1,17,19,-1,-1,-1,21,-1,23,25,27,-1,29,-1,-1,31,-1,-1,-1,-1,-1,-1,-1],"loss_changes":[4.104439E-1,9.670796E-1,1.1419393E0,5.162593E-1,1.114046E-1,9.0962094E-1,0E0,2.6525855E-1,1.08938E0,0E0,0E0,8.230247E-1,1.1178697E0,0E0,0E0,0E0,9.596687E-1,0E0,3.873477E-1,7.793108E-1,3.4740996E-1,0E0,1.1344404E0,0E0,0E0,2.0452988E-1,0E0,0E0,0E0,0E0,0E0,0E0,0E0],"parents":[2147483647,0,0,1,1,2,2,3,3,4,4,5,5,7,7,8,8,11,11,12,12,16,16,18,18,19,19,20,20,22,22,25,25],"right_children":[2,4,6,8,10,12,-1,14,16,-1,-1,18,20,-1,-1,-1,22,-1,24,26,28,-1,30,-1,-1,32,-1,-1,-1,-1,-1,-1,-1],"split_conditions":[2.0689656E-1,1.8181819E-1,6.984007E2,1.5526E2,1.4E1,4.524E1,2.2250423E-1,3E0,2.0739E2,-4.658683E-2,-1.9928995E-1,2.877E1,3E0,8.342962E-3,-1.6206533E-1,1.8605043E-1,2.5617984E2,-3.3735104E-2,1.8667902E2,4.7446E2,5.546722E-1,-1.8722099E-1,2.8827E2,2.4832653E-2,2.745507E-1,7.752365E1,1.771177E-1,-2.3234335E-1,-2.3858309E-2,2.1757112E-1,-7.644775E-4,-1.1226383E-1,2.4562834E-2],"split_indices":[6,6,5,5,0,1,0,0,5,0,0,1,2,0,0,0,5,0,5,5,6,0,5,0,0,1,0,0,0,0,0,0,0],"split_type":[0,0,0,0,0,0,0,0,0,0,0,0,0,0,0,0,0,0,0,0,0,0,0,0,0,0,0,0,0,0,0,0,0],"sum_hessian":[1.4209799E2,1.2946463E2,1.2633357E1,1.2659778E2,2.8668554E0,1.0860222E1,1.7731351E0,2.6718912E0,1.2392589E2,1.5064873E0,1.3603681E0,4.131814E0,6.728408E0,1.0638247E0,1.6080664E0,1.8808237E0,1.2204507E2,1.9600463E0,2.171768E0,3.6891487E0,3.0392592E0,1.4310017E0,1.2061406E2,1.0567524E0,1.1150155E0,2.3965604E0,1.2925884E0,1.7164652E0,1.322794E0,1.1807735E0,1.1943329E2,1.0895014E0,1.307059E0],"tree_param":{"num_deleted":"0","num_feature":"7","num_nodes":"33","size_leaf_vector":"1"}},{"base_weights":[3.4165008E-3,-2.812504E-2,8.576483E-2,-4.0281788E-3,-2.566078E-1,4.4238937E-1,9.41746E-4,-1.7262029E-2,1.4278407E-1,-4.2423915E-2,9.290227E-1,-2.752608E-1,1.3685249E-1,8.78713E-3,-5.011515E-1,1.1027108E-1,-3.4721622E-1,3.466251E-1,5.0142977E-2,1.2674382E-1,-5.916012E-1,3.6110973E-1,-1.4878875E-1,-1.34506095E-2,5.714497E-1,-2.3419052E-1,-1.5576245E-2,-1.7030682E-1,1.8447297E-2,-2.8903094E-1,5.106594E-1,-2.5673446E-1,-3.0844676E-1,-1.316185E-1,6.264994E-1,-1.9745617E-1,-1.3120093E-2,1.49584925E-2,-5.052151E-2,2.7538186E-1,-4.933069E-2,9.4307065E-3,-1.4072976E-1,2.1134388E-1,1.6855393E-2,6.1533723E-2,-2.1642958E-1,-1.3142392E-1,3.8121182E-2,9.631082E-2,2.8449968E-1,-4.1985285E-2,7.9680994E-2],"categories":[],"categories_nodes":[],"categories_segments":[],"categories_sizes":[],"default_left":[0,0,0,0,0,0,0,0,0,0,0,0,0,0,0,0,0,0,0,0,0,0,0,0,0,0,0,0,0,0,0,0,0,0,0,0,0,0,0,0,0,0,0,0,0,0,0,0,0,0,0,0,0],"id":17,"left_children":[1,3,5,7,-1,9,11,13,-1,15,17,19,21,23,25,-1,27,-1,-1,29,31,33,35,37,39,-1,-1,-1,-1,41,43,-1,45,47,49,-1,51,-1,-1,-1,-1,-1,-1,-1,-1,-1,-1,-1,-1,-1,-1,-1,-1],"loss_changes":[3.719212E-1,2.062001E0,1.1988733E0,6.541262E-1,0E0,1.8361661E0,1.2775879E0,1.2639368E0,0E0,7.238668E-1,4.6998262E-1,1.502481E0,1.5145586E0,1.2063979E0,6.0250413E-1,0E0,3.2785428E-1,0E0,0E0,1.0681072E0,2.191422E-1,1.791172E0,7.334655E-1,9.221182E-1,1.0855272E0,0E0,0E0,0E0,0E0,2.113561E-1,2.563632E-1,0E0,1.1407256E0,4.8382396E-1,5.4752445E-1,0E0,3.7300336E-1,0E0,0E0,0E0,0E0,0E0,0E0,0E0,0E0,0E0,0E0,0E0,0E0,0E0,0E0,0E0,0E0],"parents":[2147483647,0,0,1,1,2,2,3,3,5,5,6,6,7,7,9,9,10,10,11,11,12,12,13,13,14,14,16,16,19,19,20,20,21,21,22,22,23,23,24,24,29,29,30,30,32,32,33,33,34,34,36,36],"right_children":[2,4,6,8,-1,10,12,14,-1,16,18,20,22,24,26,-1,28,-1,-1,30,32,34,36,38,40,-1,-1,-1,-1,42,44,-1,46,48,50,-1,52,-1,-1,-1,-1,-1,-1,-1,-1,-1,-1,-1,-1,-1,-1,-1,-1],"split_conditions":[8.501534E-2,8.3333336E-2,2.66E1,8E-2,-2.566078E-1,1.938E1,5.5258698E1,7.4074075E-2,1.4278407E-1,1.3793103E-1,1.6666667E-1,4.7446E2,7.965E1,6.67653E-2,7.095298E1,1.1027108E-1,2.0689656E-1,3.466251E-1,5.0142977E-2,8E0,6.92166E2,6.146646E2,8.245E1,2E0,6.053E1,-2.3419052E-1,-1.5576245E-2,-1.7030682E-1,1.8447297E-2,1.4469E2,3.721E1,-2.5673446E-1,4E0,6.279E1,2.2E1,-1.9745617E-1,1.9459E3,1.49584925E-2,-5.052151E-2,2.7538186E-1,-4.933069E-2,9.4307065E-3,-1.4072976E-1,2.1134388E-1,1.6855393E-2,6.1533723E-2,-2.1642958E-1,-1.3142392E-1,3.8121182E-2,9.631082E-2,2.8449968E-1,-4.1985285E-2,7.9680994E-2],"split_indices":[6,6,1,6,0,1,1,6,0,6,6,5,1,6,1,0,6,0,0,0,5,5,1,2,1,0,0,0,0,5,1,0,2,1,0,0,5,0,0,0,0,0,0,0,0,0,0,0,0,0,0,0,0],"split_type":[0,0,0,0,0,0,0,0,0,0,0,0,0,0,0,0,0,0,0,0,0,0,0,0,0,0,0,0,0,0,0,0,0,0,0,0,0,0,0,0,0,0,0,0,0,0,0,0,0,0,0,0,0],"sum_hessian":[1.4126152E2,1.0261556E2,3.864595E1,1.0068746E2,1.9280989E0,6.61574E0,3.2030212E1,9.892397E1,1.7634916E0,3.7713332E0,2.8444066E0,1.02251005E1,2.180511E1,9.480233E1,4.1216407E0,1.5203077E0,2.2510254E0,1.7946014E0,1.0498052E0,4.7668023E0,5.458298E0,1.206705E1,9.738061E0,9.2136955E1,2.665373E0,2.0860894E0,2.035551E0,1.2095549E0,1.0414706E0,2.4070997E0,2.3597028E0,1.7775487E0,3.6807494E0,4.40069E0,7.6663604E0,1.2380588E0,8.500002E0,6.589243E1,2.6244526E1,1.6439353E0,1.0214379E0,1.1629056E0,1.2441941E0,1.2685901E0,1.0911127E0,1.8649595E0,1.81579E0,1.6969291E0,2.7037609E0,4.9580326E0,2.7083278E0,6.1839366E0,2.316065E0],"tree_param":{"num_deleted":"0","num_feature":"7","num_nodes":"53","size_leaf_vector":"1"}},{"base_weights":[1.642931E-3,-1.4219702E-2,1.6091278E-1,1.9611467E-3,-3.479124E-1,3.944794E-2,1.795328E-1,-7.245652E-3,1.6328943E-1,-1.6799085E-1,-9.701536E-2,2.3477364E-1,-2.1990974E-1,-1.8268795E-1,1.5872445E-2,5.2826054E-2,-7.8532465E-2,-1.2364526E-1,4.6494582E-1,5.8296245E-2,-4.6380267E-1,-3.0317366E-1,8.821282E-2,2.3733537E-1,-4.7323728E-4,1.0247963E-1,-1.6318576E-1,1.7831044E-1,1.6380435E-2,-2.0604563E-1,-4.094463E-3,-1.5578966E-1,3.4874383E-2,1.4761202E-1,-4.4051427E-2,-6.4227716E-3,7.734017E-2],"categories":[],"categories_nodes":[],"categories_segments":[],"categories_sizes":[],"default_left":[0,0,0,0,0,0,0,0,0,0,0,0,0,0,0,0,0,0,0,0,0,0,0,0,0,0,0,0,0,0,0,0,0,0,0,0,0],"id":18,"left_children":[1,3,5,7,9,11,-1,13,-1,-1,15,17,19,21,23,-1,-1,25,27,-1,29,31,33,-1,35,-1,-1,-1,-1,-1,-1,-1,-1,-1,-1,-1,-1],"loss_changes":[3.583359E-1,6.976564E-1,6.5907705E-1,6.236357E-1,2.6359212E-1,6.1521775E-1,0E0,5.018663E-1,0E0,0E0,2.2367695E-1,6.209141E-1,6.251231E-1,4.9686232E-1,1.3894618E0,0E0,0E0,8.6253244E-1,1.9956827E-1,0E0,3.548808E-1,9.844935E-1,5.6664735E-1,0E0,5.914198E-1,0E0,0E0,0E0,0E0,0E0,0E0,0E0,0E0,0E0,0E0,0E0,0E0],"parents":[2147483647,0,0,1,1,2,2,3,3,4,4,5,5,7,7,10,10,11,11,12,12,13,13,14,14,17,17,18,18,20,20,21,21,22,22,24,24],"right_children":[2,4,6,8,10,12,-1,14,-1,-1,16,18,20,22,24,-1,-1,26,28,-1,30,32,34,-1,36,-1,-1,-1,-1,-1,-1,-1,-1,-1,-1,-1,-1],"split_conditions":[2.0689656E-1,1.6666667E-1,6.984007E2,1.539208E-1,3.725975E2,3E0,1.795328E-1,1.4E1,1.6328943E-1,-1.6799085E-1,7.522446E2,2.0739E2,4.321E1,9.245654E-2,2.8827E2,5.2826054E-2,-7.8532465E-2,3.29E1,7.965E1,5.8296245E-2,5.546722E-1,1E0,1.25E-1,2.3733537E-1,9.343E1,1.0247963E-1,-1.6318576E-1,1.7831044E-1,1.6380435E-2,-2.0604563E-1,-4.094463E-3,-1.5578966E-1,3.4874383E-2,1.4761202E-1,-4.4051427E-2,-6.4227716E-3,7.734017E-2],"split_indices":[6,6,5,6,5,2,0,0,0,0,5,5,1,6,5,0,0,1,1,0,6,3,6,0,1,0,0,0,0,0,0,0,0,0,0,0,0],"split_type":[0,0,0,0,0,0,0,0,0,0,0,0,0,0,0,0,0,0,0,0,0,0,0,0,0,0,0,0,0,0,0,0,0,0,0,0,0],"sum_hessian":[1.3992868E2,1.2808287E2,1.1845816E1,1.2310748E2,4.975392E0,1.0125097E1,1.7207184E0,1.22022644E2,1.0848361E0,2.028794E0,2.9465976E0,5.829564E0,4.295533E0,1.3403284E1,1.0861936E2,1.0828822E0,1.8637153E0,2.4606736E0,3.3688905E0,1.6671982E0,2.628335E0,9.194715E0,4.208569E0,1.2641444E0,1.0735522E2,1.2567849E0,1.2038887E0,2.2201848E0,1.1487058E0,1.4060221E0,1.222313E0,5.910792E0,3.2839231E0,1.146132E0,3.0624368E0,1.0015373E2,7.201482E0],"tree_param":{"num_deleted":"0","num_feature":"7","num_nodes":"37","size_leaf_vector":"1"}},{"base_weights":[3.87395E-3,1.5598129E-2,-2.6495555E-1,-1.2085199E-4,4.513766E-1,-2.327088E-2,-1.412394E-1,2.6251014E-2,-1.3310543E-1,7.600253E-1,-9.768493E-2,-9.510671E-2,9.92135E-2,-1.734085E-2,5.7759047E-1,-2.3740336E-1,-1.611916E-2,8.271761E-2,2.7476385E-1,4.6236377E-2,-1.7573346E-1,3.6180544E-1,2.5393784E-1,-3.3653477E-1,1.12423114E-1,-2.1067373E-3,9.912321E-2,-1.3631225E-1,-2.7259808E-2,1.61909E-1,-6.9918536E-2,6.28596E-2,-2.0300724E-1,2.2385772E-1,-1.5047705E-2],"categories":[],"categories_nodes":[],"categories_segments":[],"categories_sizes":[],"default_left":[0,0,0,0,0,0,0,0,0,0,0,0,0,0,0,0,0,0,0,0,0,0,0,0,0,0,0,0,0,0,0,0,0,0,0],"id":19,"left_children":[1,3,5,7,9,11,-1,13,15,17,-1,-1,-1,19,21,-1,23,-1,-1,25,27,29,-1,31,33,-1,-1,-1,-1,-1,-1,-1,-1,-1,-1],"loss_changes":[4.444664E-1,9.235326E-1,2.822612E-1,4.6334088E-1,1.3731487E0,4.9612474E-1,0E0,2.6599166E0,1.6708688E0,2.3675203E-2,0E0,0E0,0E0,1.046851E0,1.6414952E-1,0E0,8.444912E-1,0E0,0E0,1.1282939E0,6.622854E-1,7.865852E-1,0E0,1.2298834E0,1.5549268E0,0E0,0E0,0E0,0E0,0E0,0E0,0E0,0E0,0E0,0E0],"parents":[2147483647,0,0,1,1,2,2,3,3,4,4,5,5,7,7,8,8,9,9,13,13,14,14,16,16,19,19,20,20,21,21,23,23,24,24],"right_children":[2,4,6,8,10,12,-1,14,16,18,-1,-1,-1,20,22,-1,24,-1,-1,26,28,30,-1,32,34,-1,-1,-1,-1,-1,-1,-1,-1,-1,-1],"split_conditions":[9.671E1,9.380897E1,4.00995E3,8.148E1,9.245654E-2,2.6E1,-1.412394E-1,7.629823E1,8.245E1,3.3E1,-9.768493E-2,-9.510671E-2,9.92135E-2,5.806E1,4.3E1,-2.3740336E-1,3.368549E-2,8.271761E-2,2.7476385E-1,5.172659E1,6.1880642E1,3E1,2.5393784E-1,1E0,4.4444446E-2,-2.1067373E-3,9.912321E-2,-1.3631225E-1,-2.7259808E-2,1.61909E-1,-6.9918536E-2,6.28596E-2,-2.0300724E-1,2.2385772E-1,-1.5047705E-2],"split_indices":[1,1,5,1,6,0,0,1,1,0,0,0,0,1,0,0,6,0,0,1,1,0,0,2,6,0,0,0,0,0,0,0,0,0,0],"split_type":[0,0,0,0,0,0,0,0,0,0,0,0,0,0,0,0,0,0,0,0,0,0,0,0,0,0,0,0,0,0,0,0,0,0,0],"sum_hessian":[1.3870839E2,1.3381445E2,4.8939314E0,1.3012059E2,3.6938617E0,2.7629435E0,2.1309876E0,1.0925674E2,2.0863852E1,2.6593235E0,1.0345384E0,1.5669918E0,1.1959517E0,1.0214885E2,7.1078897E0,2.2785969E0,1.8585255E1,1.3216288E0,1.3376946E0,7.339636E1,2.8752483E1,5.2444944E0,1.8633952E0,4.8579135E0,1.3727342E1,6.2633186E1,1.0763178E1,5.696277E0,2.3056206E1,4.1085916E0,1.1359032E0,2.0119913E0,2.8459222E0,2.0697024E0,1.16576395E1],"tree_param":{"num_deleted":"0","num_feature":"7","num_nodes":"35","size_leaf_vector":"1"}},{"base_weights":[3.78196E-3,-1.257833E-1,1.0679954E-2,2.3561907E-1,-1.5293765E-3,-7.655214E-2,4.3736824E-1,-3.5979417E-1,1.0981442E-2,2.2308427E-1,-3.730548E-2,-5.1262164E-1,6.118828E-3,1.4993557E-1,-9.057225E-3,-2.7492482E-2,-2.15856E-1,3.23872E-2,6.302937E-1,-4.4699112E-1,1.5387746E-2,5.7048436E-2,-1.785337E-1,2.96074E-1,-1.6980171E-2,-2.3882006E-1,-1.1713773E-2,1.6521172E-1,-2.4427142E-4],"categories":[],"categories_nodes":[],"categories_segments":[],"categories_sizes":[],"default_left":[0,0,0,0,0,0,0,0,0,0,0,0,0,0,0,0,0,0,0,0,0,0,0,0,0,0,0,0,0],"id":20,"left_children":[1,-1,3,5,7,-1,9,11,13,-1,-1,15,-1,17,19,-1,-1,21,23,25,27,-1,-1,-1,-1,-1,-1,-1,-1],"loss_changes":[4.0953934E-1,0E0,3.781232E-1,8.1344694E-1,5.931904E-1,0E0,1.0199683E0,2.6991457E-1,3.5776E-1,0E0,0E0,2.1481913E-1,0E0,8.93708E-1,1.214519E0,0E0,0E0,1.5052005E0,8.222424E-1,8.229394E-1,9.355141E-1,0E0,0E0,0E0,0E0,0E0,0E0,0E0,0E0],"parents":[2147483647,0,0,2,2,3,3,4,4,6,6,7,7,8,8,11,11,13,13,14,14,17,17,18,18,19,19,20,20],"right_children":[2,-1,4,6,8,-1,10,12,14,-1,-1,16,-1,18,20,-1,-1,22,24,26,28,-1,-1,-1,-1,-1,-1,-1,-1],"split_conditions":[1.109E1,-1.257833E-1,1.541E1,3.162E2,1.6549366E1,-7.655214E-2,6.325E2,5.3458026E2,3.9228E2,2.2308427E-1,-3.730548E-2,2.9E1,6.118828E-3,3.5032E2,5.2459E2,-2.7492482E-2,-2.15856E-1,2E0,1.314551E-1,3.458E1,5.496E2,5.7048436E-2,-1.785337E-1,2.96074E-1,-1.6980171E-2,-2.3882006E-1,-1.1713773E-2,1.6521172E-1,-2.4427142E-4],"split_indices":[1,0,1,5,1,0,5,5,5,0,0,0,0,5,5,0,0,3,6,1,5,0,0,0,0,0,0,0,0],"split_type":[0,0,0,0,0,0,0,0,0,0,0,0,0,0,0,0,0,0,0,0,0,0,0,0,0,0,0,0,0],"sum_hessian":[1.3780228E2,1.2517042E0,1.3655058E2,6.0880914E0,1.304625E2,1.6964213E0,4.39167E0,3.4654632E0,1.26997025E2,2.6325855E0,1.7590849E0,2.2233858E0,1.2420775E0,1.5189079E1,1.11807945E2,1.2081237E0,1.015262E0,1.3060475E1,2.128604E0,4.9971914E0,1.0681075E2,1.0993339E1,2.067137E0,1.1136478E0,1.014956E0,2.1802022E0,2.8169894E0,2.1686292E0,1.0464212E2],"tree_param":{"num_deleted":"0","num_feature":"7","num_nodes":"29","size_leaf_vector":"1"}},{"base_weights":[1.1555378E-3,3.3046056E-2,-6.429865E-2,1.6140316E-2,2.0191167E-1,5.254944E-2,-1.5574063E-1,5.8092035E-2,-1.9736855E-1,-5.6677673E-2,5.097721E-1,-4.919263E-1,-6.013345E-3,-4.2367082E-2,1.3934584E-1,3.1676587E-1,-3.3121952E-1,1.786497E-2,-1.8664965E-1,2.4280418E-1,-5.445486E-2,-6.5724593E-1,6.6123724E-2,8.800661E-2,-4.359514E-1,-1.4892463E-1,1.8011181E-1,3.96249E-2,5.465733E-1,-3.7844636E-2,1.7952792E-1,9.913642E-2,-4.6834996E-1,-1.6979809E-1,3.1817284E-1,-3.2416636E-1,-2.6419115E-1,3.629702E-1,-8.8062264E-2,-1.662468E-1,-2.6118834E-2,6.06564E-3,-2.0644277E-1,8.228398E-2,-1.07438594E-1,2.330759E-2,-1.8706253E-1,2.4224725E-1,5.4094356E-2,-9.164162E-2,1.393932E-1,-2.9602215E-1,-5.7736587E-2,1.6209364E-2,-2.1058099E-1,1.6627473E-1,-9.279008E-2,-2.1256675E-1,1.6936282E-2,7.934817E-3,1.8004605E-1,-6.1191868E-2,1.4096014E-1],"categories":[],"categories_nodes":[],"categories_segments":[],"categories_sizes":[],"default_left":[0,0,0,0,0,0,0,0,0,0,0,0,0,0,0,0,0,0,0,0,0,0,0,0,0,0,0,0,0,0,0,0,0,0,0,0,0,0,0,0,0,0,0,0,0,0,0,0,0,0,0,0,0,0,0,0,0,0,0,0,0,0,0],"id":21,"left_children":[1,3,5,7,-1,9,11,13,15,17,19,21,23,25,27,29,31,33,-1,-1,-1,35,-1,37,39,41,43,45,47,-1,-1,49,51,53,55,57,-1,59,61,-1,-1,-1,-1,-1,-1,-1,-1,-1,-1,-1,-1,-1,-1,-1,-1,-1,-1,-1,-1,-1,-1,-1,-1],"loss_changes":[2.908095E-1,1.0024252E0,4.9591804E-1,8.379139E-1,0E0,1.0670428E0,1.2987298E0,6.416801E-1,1.1633034E0,7.5633824E-1,9.977417E-1,1.0817904E0,8.0251443E-1,8.706647E-1,1.7364417E0,5.3557944E-1,7.954222E-1,9.891003E-1,0E0,0E0,0E0,2.1368694E-1,0E0,8.232081E-1,9.8573625E-2,2.2589273E0,7.05431E-1,9.536035E-1,6.60759E-1,0E0,0E0,7.17538E-1,1.2116189E0,1.3318177E0,1.168195E0,6.655521E-1,0E0,5.089515E-1,7.9223466E-1,0E0,0E0,0E0,0E0,0E0,0E0,0E0,0E0,0E0,0E0,0E0,0E0,0E0,0E0,0E0,0E0,0E0,0E0,0E0,0E0,0E0,0E0,0E0,0E0],"parents":[2147483647,0,0,1,1,2,2,3,3,5,5,6,6,7,7,8,8,9,9,10,10,11,11,12,12,13,13,14,14,15,15,16,16,17,17,21,21,23,23,24,24,25,25,26,26,27,27,28,28,31,31,32,32,33,33,34,34,35,35,37,37,38,38],"right_children":[2,4,6,8,-1,10,12,14,16,18,20,22,24,26,28,30,32,34,-1,-1,-1,36,-1,38,40,42,44,46,48,-1,-1,50,52,54,56,58,-1,60,62,-1,-1,-1,-1,-1,-1,-1,-1,-1,-1,-1,-1,-1,-1,-1,-1,-1,-1,-1,-1,-1,-1,-1,-1],"split_conditions":[1E0,1E0,1.27764E3,3E0,2.0191167E-1,7.261E1,1.85504E3,1.13728E3,3.458E1,4.8E1,9.0128876E1,4.5E1,5.5E1,9.245654E-2,5.7223428E-2,7.8618585E2,1.02579E3,6.6743E2,-1.8664965E-1,2.4280418E-1,-5.445486E-2,1.5806134E3,6.6123724E-2,5.806E1,2E0,4.803E1,9.6151E2,5.5555556E-2,8.065E1,-3.7844636E-2,1.7952792E-1,9E0,1.464149E3,4.6704517E2,4.889E1,1.3459136E3,-2.6419115E-1,2.503859E-2,9.677419E-2,-1.662468E-1,-2.6118834E-2,6.06564E-3,-2.0644277E-1,8.228398E-2,-1.07438594E-1,2.330759E-2,-1.8706253E-1,2.4224725E-1,5.4094356E-2,-9.164162E-2,1.393932E-1,-2.9602215E-1,-5.7736587E-2,1.6209364E-2,-2.1058099E-1,1.6627473E-1,-9.279008E-2,-2.1256675E-1,1.6936282E-2,7.934817E-3,1.8004605E-1,-6.1191868E-2,1.4096014E-1],"split_indices":[4,3,5,2,0,1,5,5,1,0,1,0,0,6,6,5,5,5,0,0,0,5,0,1,3,1,5,6,1,0,0,0,5,5,1,5,0,6,6,0,0,0,0,0,0,0,0,0,0,0,0,0,0,0,0,0,0,0,0,0,0,0,0],"split_type":[0,0,0,0,0,0,0,0,0,0,0,0,0,0,0,0,0,0,0,0,0,0,0,0,0,0,0,0,0,0,0,0,0,0,0,0,0,0,0,0,0,0,0,0,0,0,0,0,0,0,0,0,0,0,0,0,0,0,0,0,0,0,0],"sum_hessian":[1.373008E2,9.265343E1,4.4647373E1,9.126776E1,1.3856657E0,1.9787483E1,2.485989E1,7.688815E1,1.4379607E1,1.6679028E1,3.1084569E0,6.9559875E0,1.7903902E1,3.459491E1,4.2293247E1,2.6880383E0,1.1691568E1,1.5592085E1,1.0869418E0,2.0495062E0,1.0589505E0,5.7084994E0,1.2474883E0,1.5343787E1,2.5601146E0,2.3614986E1,1.0979923E1,3.485527E1,7.4379764E0,1.2595327E0,1.4285055E0,2.8921642E0,8.799404E0,9.86316E0,5.7289248E0,3.2756183E0,2.4328809E0,5.5753455E0,9.768441E0,1.4727842E0,1.0873303E0,1.8708845E1,4.9061418E0,9.762359E0,1.2175643E0,3.3798042E1,1.0572265E0,3.6401117E0,3.7978647E0,1.4506171E0,1.4415472E0,2.1615198E0,6.6378846E0,7.575289E0,2.2878714E0,4.2475514E0,1.4813733E0,1.2010727E0,2.0745459E0,2.764511E0,2.8108344E0,8.613405E0,1.1550363E0],"tree_param":{"num_deleted":"0","num_feature":"7","num_nodes":"63","size_leaf_vector":"1"}},{"base_weights":[-4.651617E-3,3.9167702E-2,-5.7413716E-2,6.1130997E-2,-1.5744244E-1,-7.7778995E-2,1.10147156E-1,5.3566606E-3,3.0606487E-1,-4.596845E-2,-5.598967E-1,5.255665E-2,-7.2242117E-1,1.6397384E-1,2.9855472E-1,-8.125437E-2,2.7536854E-1,-2.1317619E-1,-4.197383E-2,1.0645316E-2,5.557273E-1,-2.5280625E-1,-6.707534E-2,3.3957067E-1,-1.3815163E-1,-3.0328367E-2,-3.9830098E-1,1.289215E-2,-1.7254734E-1,3.1498797E-2,2.3286487E-1,1.457373E-1,-3.501284E-2,-3.7450053E-2,6.40529E-2,-2.3461933E-1,6.494922E-2],"categories":[],"categories_nodes":[],"categories_segments":[],"categories_sizes":[],"default_left":[0,0,0,0,0,0,0,0,0,0,0,0,0,0,0,0,0,0,0,0,0,0,0,0,0,0,0,0,0,0,0,0,0,0,0,0,0],"id":22,"left_children":[1,3,5,7,-1,9,-1,11,13,15,17,19,21,23,-1,25,-1,-1,-1,27,29,-1,-1,31,-1,33,35,-1,-1,-1,-1,-1,-1,-1,-1,-1,-1],"loss_changes":[3.1750113E-1,9.62138E-1,5.669766E-1,9.978812E-1,0E0,8.982084E-1,0E0,2.1200953E0,1.1638654E0,2.0337985E0,1.309179E-1,1.2141339E0,3.7130237E-2,1.5197604E0,0E0,9.0000224E-1,0E0,0E0,0E0,1.0554217E0,3.586439E-1,0E0,0E0,7.4255335E-1,0E0,1.1731901E0,1.9944237E0,0E0,0E0,0E0,0E0,0E0,0E0,0E0,0E0,0E0,0E0],"parents":[2147483647,0,0,1,1,2,2,3,3,5,5,7,7,8,8,9,9,10,10,11,11,12,12,13,13,15,15,19,19,20,20,23,23,25,25,26,26],"right_children":[2,4,6,8,-1,10,-1,12,14,16,18,20,22,24,-1,26,-1,-1,-1,28,30,-1,-1,32,-1,34,36,-1,-1,-1,-1,-1,-1,-1,-1,-1,-1],"split_conditions":[2E0,4.81381E3,4.81381E3,2.664E3,-1.5744244E-1,3.93288E3,1.10147156E-1,2.4314597E3,2.7203219E-2,3.74448E3,8.434E1,2.22999E3,2.4901E3,2.173913E-2,2.9855472E-1,2.63671E3,2.7536854E-1,-2.1317619E-1,-4.197383E-2,2.1259688E3,2.3255814E-2,-2.5280625E-1,-6.707534E-2,5.5E1,-1.3815163E-1,6.871E1,4.9E1,1.289215E-2,-1.7254734E-1,3.1498797E-2,2.3286487E-1,1.457373E-1,-3.501284E-2,-3.7450053E-2,6.40529E-2,-2.3461933E-1,6.494922E-2],"split_indices":[2,5,5,5,0,5,0,5,6,5,1,5,5,6,0,5,0,0,0,5,6,0,0,0,0,1,0,0,0,0,0,0,0,0,0,0,0],"split_type":[0,0,0,0,0,0,0,0,0,0,0,0,0,0,0,0,0,0,0,0,0,0,0,0,0,0,0,0,0,0,0,0,0,0,0,0,0],"sum_hessian":[1.3535484E2,7.408465E1,6.1270203E1,7.216585E1,1.9187969E0,5.924521E1,2.024993E0,5.9613113E1,1.2552739E1,5.6605667E1,2.6395435E0,5.6853657E1,2.7594557E0,1.1433236E1,1.1195031E0,5.5489944E1,1.1157229E0,1.4333258E0,1.2062176E0,5.342482E1,3.4288356E0,1.6680051E0,1.0914505E0,9.280026E0,2.15321E0,4.875437E1,6.7355723E0,5.150886E1,1.9159607E0,1.6112523E0,1.8175833E0,6.978884E0,2.3011422E0,3.5488155E1,1.3266217E1,3.9794762E0,2.7560961E0],"tree_param":{"num_deleted":"0","num_feature":"7","num_nodes":"37","size_leaf_vector":"1"}},{"base_weights":[-5.137799E-3,-3.0302104E-2,8.17091E-2,2.9774943E-2,-1.3145179E-1,1.2683797E-1,-2.575367E-1,-1.5814612E-2,3.7582895E-1,-1.7161183E-1,3.825482E-1,4.3708757E-2,3.7615144E-1,-1.201452E-1,2.3516314E-2,1.9117057E-1,-6.90582E-2,-9.59554E-2,6.182723E-1,-2.6305264E-2,-3.5351953E-1,2.2556803E-1,-5.9134673E-2,1.3137524E-1,-1.5687422E-1,6.2908334E-1,-5.647891E-2,5.50359E-2,2.2308336E-1,-1.0750072E-1,2.499343E-1,4.0013015E-2,-8.234878E-2,2.7900288E-1,2.07474E-1,-1.7498314E-1,3.4398657E-1,-5.602879E-1,-1.6960551E-1,2.1250564E-1,-1.7431292E-1,2.6943475E-1,1.9266751E-1,-7.2187446E-2,6.462638E-2,-8.201527E-2,4.0021515E-3,2.411366E-1,-3.9717246E-2,-1.0463645E-1,1.6810009E-1,-8.093861E-2,5.2964684E-2,-8.819443E-2,1.9001646E-1,-2.0630835E-1,-1.9212894E-2,1.6694711E-1,-1.2193259E-1,-3.0173238E-2,1.10448025E-1,-6.424335E-2,1.5216796E-1],"categories":[],"categories_nodes":[],"categories_segments":[],"categories_sizes":[],"default_left":[0,0,0,0,0,0,0,0,0,0,0,0,0,0,0,0,0,0,0,0,0,0,0,0,0,0,0,0,0,0,0,0,0,0,0,0,0,0,0,0,0,0,0,0,0,0,0,0,0,0,0,0,0,0,0,0,0,0,0,0,0,0,0],"id":23,"left_children":[1,3,5,7,9,11,13,15,17,19,21,23,25,-1,-1,27,29,31,33,35,37,-1,-1,39,-1,41,-1,43,-1,45,47,-1,-1,-1,49,51,53,55,57,59,-1,-1,61,-1,-1,-1,-1,-1,-1,-1,-1,-1,-1,-1,-1,-1,-1,-1,-1,-1,-1,-1,-1],"loss_changes":[2.9883045E-1,6.4725465E-1,5.032137E-1,1.0666698E0,8.837851E-1,5.5964977E-1,2.2052035E-1,6.784944E-1,9.591497E-1,9.806471E-1,8.294549E-1,1.1603981E0,1.0919342E0,0E0,0E0,9.079399E-1,6.246963E-1,1.8139541E-1,4.8972082E-1,1.2659363E0,5.3436685E-1,0E0,0E0,1.2697343E0,0E0,4.068874E-1,0E0,5.8304703E-1,0E0,8.898029E-1,1.2803665E0,0E0,0E0,0E0,8.995291E-1,5.905539E-1,1.4068838E0,4.2112017E-1,1.9791552E0,9.4036543E-1,0E0,0E0,5.1258266E-1,0E0,0E0,0E0,0E0,0E0,0E0,0E0,0E0,0E0,0E0,0E0,0E0,0E0,0E0,0E0,0E0,0E0,0E0,0E0,0E0],"parents":[2147483647,0,0,1,1,2,2,3,3,4,4,5,5,6,6,7,7,8,8,9,9,10,10,11,11,12,12,15,15,16,16,17,17,18,18,19,19,20,20,23,23,25,25,27,27,29,29,30,30,34,34,35,35,36,36,37,37,38,38,39,39,42,42],"right_children":[2,4,6,8,10,12,14,16,18,20,22,24,26,-1,-1,28,30,32,34,36,38,-1,-1,40,-1,42,-1,44,-1,46,48,-1,-1,-1,50,52,54,56,58,60,-1,-1,62,-1,-1,-1,-1,-1,-1,-1,-1,-1,-1,-1,-1,-1,-1,-1,-1,-1,-1,-1,-1],"split_conditions":[4.7E1,3E1,5.9E1,2.7E1,9.27E1,5.6E1,5.948398E1,1E0,3.4839608E-2,1.97912E3,2E0,5.5E1,1E0,-1.201452E-1,2.3516314E-2,2.6919872E-3,1.95975E3,1.56933E3,5.663E1,1.52172E3,2.39712E3,2.2556803E-1,-5.9134673E-2,9.636E1,-1.5687422E-1,5.641E1,-5.647891E-2,2.836E1,2.2308336E-1,9.245654E-2,2.0592E3,4.0013015E-2,-8.234878E-2,2.7900288E-1,7.261E1,6.67653E-2,2.407819E-2,6.451613E-2,6.337E1,2.14032E3,-1.7431292E-1,2.6943475E-1,8.404E1,-7.2187446E-2,6.462638E-2,-8.201527E-2,4.0021515E-3,2.411366E-1,-3.9717246E-2,-1.0463645E-1,1.6810009E-1,-8.093861E-2,5.2964684E-2,-8.819443E-2,1.9001646E-1,-2.0630835E-1,-1.9212894E-2,1.6694711E-1,-1.2193259E-1,-3.0173238E-2,1.10448025E-1,-6.424335E-2,1.5216796E-1],"split_indices":[0,0,0,0,1,0,1,2,6,5,2,0,4,0,0,6,5,5,1,5,5,0,0,1,0,1,0,1,0,6,5,0,0,0,1,6,6,6,1,5,0,0,1,0,0,0,0,0,0,0,0,0,0,0,0,0,0,0,0,0,0,0,0],"split_type":[0,0,0,0,0,0,0,0,0,0,0,0,0,0,0,0,0,0,0,0,0,0,0,0,0,0,0,0,0,0,0,0,0,0,0,0,0,0,0,0,0,0,0,0,0,0,0,0,0,0,0,0,0,0,0,0,0,0,0,0,0,0,0],"sum_hessian":[1.3460393E2,1.0486879E2,2.9735146E1,6.6234795E1,3.863399E1,2.6796593E1,2.9385538E0,5.9367897E1,6.866895E0,3.6452034E1,2.1819599E0,2.0977371E1,5.8192205E0,1.9265543E0,1.0119995E0,1.161683E1,4.775107E1,2.5360553E0,4.3308396E0,2.090104E1,1.5550993E1,1.1512783E0,1.0306816E0,1.8831892E1,2.1454804E0,3.9393134E0,1.8799073E0,1.0202349E1,1.4144812E0,4.3207085E1,4.543985E0,1.2208527E0,1.3152026E0,1.7437071E0,2.5871327E0,1.5289511E1,5.611529E0,6.3572655E0,9.1937275E0,1.7536537E1,1.295354E0,1.7825245E0,2.156789E0,3.4120848E0,6.7902637E0,1.7677773E1,2.5529312E1,1.405517E0,3.138468E0,1.0086286E0,1.5785042E0,1.2224846E1,3.0646648E0,1.7462353E0,3.8652937E0,4.75155E0,1.6057155E0,1.9292696E0,7.264458E0,5.940887E0,1.1595651E1,1.079683E0,1.077106E0],"tree_param":{"num_deleted":"0","num_feature":"7","num_nodes":"63","size_leaf_vector":"1"}},{"base_weights":[1.9698184E-4,4.5693975E-2,-5.461401E-2,-4.9260568E-2,1.7629929E-1,9.328963E-2,-1.1156123E-1,7.5862003E-3,-3.9886883E-1,9.241943E-2,2.689429E-1,1.9036247E-3,2.026987E-1,-4.1844478E-1,-7.484274E-3,-1.965394E-1,1.08344E-1,-1.6727442E-1,-1.3832445E-2,-1.7268835E-1,2.2863527E-1,-1.7397594E-1,2.5743404E-1,-1.1180413E-1,-6.4324373E-1,4.145367E-1,-8.0191635E-2,2.118496E-1,-3.1373128E-1,2.6288107E-1,2.865671E-2,3.622726E-2,-5.184544E-1,5.35711E-1,7.095095E-2,-4.4447294E-1,1.5864465E-1,-1.127525E-1,5.754817E-1,1.04921594E-1,-3.2190597E-1,-1.0211011E-2,-2.6580578E-1,2.5589788E-1,-1.3204448E-1,-1.7884144E-1,-6.0539823E-3,-6.689532E-2,1.6606914E-1,-1.22530915E-1,7.846272E-3,1.0013805E-1,-2.0661574E-2,-8.701309E-2,9.050962E-2,-2.388481E-1,-4.4399507E-2,7.7210106E-2,2.6665393E-1,-4.1080456E-2,1.3244426E-1,2.9448343E-3,-1.8834133E-1,1.765779E-1,-3.9675724E-2,2.3360336E-1,-2.3763102E-2,-1.2854169E-2,-1.8413685E-1,-1.175651E-1,5.9345003E-2,1.4336267E-1,-1.7110202E-2],"categories":[],"categories_nodes":[],"categories_segments":[],"categories_sizes":[],"default_left":[0,0,0,0,0,0,0,0,0,0,0,0,0,0,0,0,0,0,0,0,0,0,0,0,0,0,0,0,0,0,0,0,0,0,0,0,0,0,0,0,0,0,0,0,0,0,0,0,0,0,0,0,0,0,0,0,0,0,0,0,0,0,0,0,0,0,0,0,0,0,0,0,0],"id":24,"left_children":[1,3,5,7,9,11,13,15,17,19,-1,21,-1,23,25,27,29,-1,-1,31,33,35,37,39,41,43,45,47,49,-1,51,53,55,57,59,61,63,-1,65,-1,67,-1,-1,-1,69,-1,71,-1,-1,-1,-1,-1,-1,-1,-1,-1,-1,-1,-1,-1,-1,-1,-1,-1,-1,-1,-1,-1,-1,-1,-1,-1,-1],"loss_changes":[3.3592033E-1,9.2149556E-1,5.2503884E-1,8.6557394E-1,1.8021221E0,9.3168056E-1,1.4204235E0,8.09265E-1,3.151806E-1,1.0890237E0,0E0,7.70846E-1,0E0,7.049079E-1,1.0857353E0,6.8944067E-1,1.5839998E0,0E0,0E0,7.725179E-1,9.124583E-1,9.85152E-1,1.6240646E0,6.9220966E-1,9.0043926E-1,1.3595686E0,1.147667E0,6.4339775E-1,3.492242E-1,0E0,7.6272106E-1,7.318435E-1,2.931993E-1,4.1084957E-1,1.1482472E0,4.9500287E-1,7.402501E-1,0E0,7.332002E-1,0E0,3.5068268E-1,0E0,0E0,0E0,3.5024783E-1,0E0,7.014245E-1,0E0,0E0,0E0,0E0,0E0,0E0,0E0,0E0,0E0,0E0,0E0,0E0,0E0,0E0,0E0,0E0,0E0,0E0,0E0,0E0,0E0,0E0,0E0,0E0,0E0,0E0],"parents":[2147483647,0,0,1,1,2,2,3,3,4,4,5,5,6,6,7,7,8,8,9,9,11,11,13,13,14,14,15,15,16,16,19,19,20,20,21,21,22,22,23,23,24,24,25,25,26,26,27,27,28,28,30,30,31,31,32,32,33,33,34,34,35,35,36,36,38,38,40,40,44,44,46,46],"right_children":[2,4,6,8,10,12,14,16,18,20,-1,22,-1,24,26,28,30,-1,-1,32,34,36,38,40,42,44,46,48,50,-1,52,54,56,58,60,62,64,-1,66,-1,68,-1,-1,-1,70,-1,72,-1,-1,-1,-1,-1,-1,-1,-1,-1,-1,-1,-1,-1,-1,-1,-1,-1,-1,-1,-1,-1,-1,-1,-1,-1,-1],"split_conditions":[2E0,2.7203219E-2,3.6864944E1,8.36E1,3.5E1,3.492E1,5.268157E1,3.458E1,9.343E1,5.3458026E2,2.689429E-1,3.7E1,2.026987E-1,6.897756E-2,5.806E1,3.077753E2,3.806E1,-1.6727442E-1,-1.3832445E-2,3.9228E2,8.3876E2,1.1221927E-1,4.347826E-2,1.66632E3,4.7446E2,2.20628E3,6.371317E1,7E0,1.15336E3,2.6288107E-1,2.7E1,8E0,4.223425E2,6.042E1,8.464062E1,2.6E1,1.5E-1,-1.127525E-1,1.3534E3,1.04921594E-1,5.0052524E-2,-1.0211011E-2,-2.6580578E-1,2.5589788E-1,4.6E1,-1.7884144E-1,6.554E1,-6.689532E-2,1.6606914E-1,-1.22530915E-1,7.846272E-3,1.0013805E-1,-2.0661574E-2,-8.701309E-2,9.050962E-2,-2.388481E-1,-4.4399507E-2,7.7210106E-2,2.6665393E-1,-4.1080456E-2,1.3244426E-1,2.9448343E-3,-1.8834133E-1,1.765779E-1,-3.9675724E-2,2.3360336E-1,-2.3763102E-2,-1.2854169E-2,-1.8413685E-1,-1.175651E-1,5.9345003E-2,1.4336267E-1,-1.7110202E-2],"split_indices":[2,6,1,1,0,1,1,1,1,5,0,0,0,6,1,5,1,0,0,5,5,6,6,5,5,5,1,0,5,0,0,0,5,1,1,0,6,0,5,0,6,0,0,0,0,0,1,0,0,0,0,0,0,0,0,0,0,0,0,0,0,0,0,0,0,0,0,0,0,0,0,0,0],"split_type":[0,0,0,0,0,0,0,0,0,0,0,0,0,0,0,0,0,0,0,0,0,0,0,0,0,0,0,0,0,0,0,0,0,0,0,0,0,0,0,0,0,0,0,0,0,0,0,0,0,0,0,0,0,0,0,0,0,0,0,0,0,0,0,0,0,0,0,0,0,0,0,0,0],"sum_hessian":[1.3270497E2,7.260448E1,6.0100506E1,4.2400608E1,3.0203867E1,1.6530146E1,4.357036E1,3.731194E1,5.08867E0,2.8063595E1,2.1402712E0,1.515525E1,1.3748953E0,1.0269363E1,3.3300995E1,1.2016683E1,2.5295254E1,3.1091793E0,1.9794904E0,9.434364E0,1.862923E1,9.165717E0,5.989533E0,4.97732E0,5.292043E0,4.203111E0,2.9097885E1,2.4993296E0,9.517353E0,1.438306E0,2.3856949E1,6.4390473E0,2.9953172E0,5.507166E0,1.3122065E1,4.869455E0,4.2962623E0,1.9416771E0,4.047856E0,1.3490876E0,3.6282325E0,1.8328906E0,3.4591527E0,2.0211718E0,2.1819391E0,2.7712123E0,2.6326674E1,1.2527055E0,1.2466241E0,7.285615E0,2.2317388E0,5.1915817E0,1.8665367E1,2.8472042E0,3.5918434E0,1.0551821E0,1.940135E0,4.046494E0,1.4606721E0,8.809775E0,4.3122888E0,1.6722165E0,3.1972384E0,1.3207743E0,2.9754877E0,2.9445715E0,1.1032844E0,2.4411435E0,1.187089E0,1.1153368E0,1.0666025E0,1.711016E0,2.4615658E1],"tree_param":{"num_deleted":"0","num_feature":"7","num_nodes":"73","size_leaf_vector":"1"}},{"base_weights":[3.202612E-3,1.2842532E-2,-2.2049563E-1,-5.957448E-3,2.4023399E-1,-3.5509178E-1,4.478448E-2,2.0786934E-2,-2.573906E-1,6.660351E-1,2.882775E-2,-1.9685127E-1,2.3560347E-3,3.1711408E-3,5.1748216E-1,7.3005214E-2,-3.449906E-1,6.2068906E-2,2.3872593E-1,-1.5801743E-1,1.7037001E-1,-9.915659E-3,1.3052994E-1,-1.0132524E-1,3.2996547E-1,-9.01578E-2,-5.353776E-1,5.056452E-2,-2.8261703E-1,2.1133835E-3,-8.679063E-2,-1.4515103E-1,1.0890747E-1,4.502622E-3,-2.0180005E-1,-1.4512575E-1,-2.6227294E-3],"categories":[],"categories_nodes":[],"categories_segments":[],"categories_sizes":[],"default_left":[0,0,0,0,0,0,0,0,0,0,0,0,0,0,0,0,0,0,0,0,0,0,0,0,0,0,0,0,0,0,0,0,0,0,0,0,0],"id":25,"left_children":[1,3,5,7,9,11,-1,13,15,17,19,-1,-1,21,23,-1,25,-1,-1,27,-1,29,-1,-1,-1,31,33,-1,35,-1,-1,-1,-1,-1,-1,-1,-1],"loss_changes":[2.869698E-1,5.454808E-1,3.2667592E-1,8.023418E-1,8.577926E-1,4.7800994E-1,0E0,9.43782E-1,5.870665E-1,2.5176764E-2,8.5074997E-1,0E0,0E0,5.998545E-1,2.2118099E0,0E0,4.454131E-1,0E0,0E0,3.0776924E-1,0E0,4.9122313E-1,0E0,0E0,0E0,1.1664867E0,4.3488204E-1,0E0,2.7125955E-1,0E0,0E0,0E0,0E0,0E0,0E0,0E0,0E0],"parents":[2147483647,0,0,1,1,2,2,3,3,4,4,5,5,7,7,8,8,9,9,10,10,13,13,14,14,16,16,19,19,21,21,25,25,26,26,28,28],"right_children":[2,4,6,8,10,12,-1,14,16,18,20,-1,-1,22,24,-1,26,-1,-1,28,-1,30,-1,-1,-1,32,34,-1,36,-1,-1,-1,-1,-1,-1,-1,-1],"split_conditions":[9.671E1,3.74448E3,3E0,2.89565E3,8.038E1,2.7E1,4.478448E-2,2.76432E3,4E1,7.629823E1,9.380897E1,-1.9685127E-1,2.3560347E-3,5.8E1,4.5E1,7.3005214E-2,6.783E1,6.2068906E-2,2.3872593E-1,8.395E1,1.7037001E-1,2.4314597E3,1.3052994E-1,-1.0132524E-1,3.2996547E-1,6.406E1,3.173506E3,5.056452E-2,8.623E1,2.1133835E-3,-8.679063E-2,-1.4515103E-1,1.0890747E-1,4.502622E-3,-2.0180005E-1,-1.4512575E-1,-2.6227294E-3],"split_indices":[1,5,2,5,1,0,0,5,0,1,1,0,0,0,0,0,1,0,0,1,0,5,0,0,0,1,5,0,1,0,0,0,0,0,0,0,0],"split_type":[0,0,0,0,0,0,0,0,0,0,0,0,0,0,0,0,0,0,0,0,0,0,0,0,0,0,0,0,0,0,0,0,0,0,0,0,0],"sum_hessian":[1.3076299E2,1.2626441E2,4.4985743E0,1.1752189E2,8.742524E0,3.3272095E0,1.1713651E0,1.070523E2,1.0469587E1,2.1870356E0,6.555488E0,1.3770114E0,1.9501979E0,1.04357544E2,2.69476E0,1.2941219E0,9.175466E0,1.0534178E0,1.1336179E0,5.3930883E0,1.1624001E0,1.0223695E2,2.1205854E0,1.2618548E0,1.4329053E0,4.5537825E0,4.621683E0,1.3920125E0,4.0010757E0,9.730481E1,4.932144E0,2.4006772E0,2.1531055E0,1.1005005E0,3.5211825E0,1.865045E0,2.1360307E0],"tree_param":{"num_deleted":"0","num_feature":"7","num_nodes":"37","size_leaf_vector":"1"}},{"base_weights":[4.2539793E-3,-1.0284531E-1,1.00507345E-2,2.2387029E-1,-3.1824268E-3,-1.0979687E-1,3.6517492E-1,-1.1436187E-1,7.322457E-3,-4.8145257E-2,-1.111997E-3,5.298115E-1,-2.2676826E-2,-1.4145137E-1,2.0839276E-2,2.1182904E-1,2.2488064E-1,1.4504062E-1,-3.1559408E-1,1.6378295E-1,9.489826E-3,1.4359486E-1,-5.0913252E-2,-4.206447E-2,1.1846385E-1,-1.4111707E-1,-7.5182407E-3,-1.5031963E-3,1.1300742E-1],"categories":[],"categories_nodes":[],"categories_segments":[],"categories_sizes":[],"default_left":[0,0,0,0,0,0,0,0,0,0,0,0,0,0,0,0,0,0,0,0,0,0,0,0,0,0,0,0,0],"id":26,"left_children":[1,-1,3,5,7,9,11,-1,13,-1,-1,15,-1,17,19,21,-1,23,25,-1,27,-1,-1,-1,-1,-1,-1,-1,-1],"loss_changes":[2.670585E-1,0E0,3.6811453E-1,3.9756617E-1,4.922878E-1,1.5668754E-2,4.4332284E-1,0E0,2.4609798E-1,0E0,0E0,1.3271558E-1,0E0,5.546067E-1,6.605955E-1,3.96675E-1,0E0,3.7898505E-1,2.8765088E-1,0E0,5.89555E-1,0E0,0E0,0E0,0E0,0E0,0E0,0E0,0E0],"parents":[2147483647,0,0,2,2,3,3,4,4,5,5,6,6,8,8,11,11,13,13,14,14,15,15,17,17,18,18,20,20],"right_children":[2,-1,4,6,8,10,12,-1,14,-1,-1,16,-1,18,20,22,-1,24,26,-1,28,-1,-1,-1,-1,-1,-1,-1,-1],"split_conditions":[1.109E1,-1.0284531E-1,1.5849698E1,3.162E2,1.6549366E1,1.5E1,6.4584E2,-1.1436187E-1,7E0,-4.8145257E-2,-1.111997E-3,5.430372E2,-2.2676826E-2,4.524E1,2.4376E2,4.7446E2,2.2488064E-1,2.818131E1,2.9512E2,1.6378295E-1,2.2430849E-1,1.4359486E-1,-5.0913252E-2,-4.206447E-2,1.1846385E-1,-1.4111707E-1,-7.5182407E-3,-1.5031963E-3,1.1300742E-1],"split_indices":[1,0,1,5,1,0,5,0,0,0,0,5,0,1,5,5,0,1,5,0,6,0,0,0,0,0,0,0,0],"split_type":[0,0,0,0,0,0,0,0,0,0,0,0,0,0,0,0,0,0,0,0,0,0,0,0,0,0,0,0,0],"sum_hessian":[1.3002754E2,1.1809412E0,1.288466E2,6.5817785E0,1.22264824E2,2.0244224E0,4.557356E0,2.351632E0,1.1991319E2,1.022962E0,1.0014604E0,3.170912E0,1.3864441E0,9.198991E0,1.107142E2,2.0985737E0,1.0723383E0,3.540852E0,5.6581388E0,1.3457862E0,1.09368416E2,1.0851679E0,1.0134057E0,1.8581141E0,1.682738E0,3.2875009E0,2.370638E0,1.061625E2,3.2059135E0],"tree_param":{"num_deleted":"0","num_feature":"7","num_nodes":"29","size_leaf_vector":"1"}},{"base_weights":[4.6788286E-3,1.191215E-2,-2.4073392E-1,-3.5995832E-3,2.9409894E-1,-9.534993E-2,-8.172356E-3,6.4136367E-3,-1.2520514E-1,4.9095765E-1,-4.7621846E-2,2.0731097E-2,-3.2596743E-1,1.8000739E-3,1.9982514E-1,4.285816E-3,3.3751926E-1,-4.9517787E-1,3.5403274E-2,1.832769E-2,-2.068203E-2,2.1646218E-1,1.0516225E-2,-4.938734E-2,-1.7908075E-1],"categories":[],"categories_nodes":[],"categories_segments":[],"categories_sizes":[],"default_left":[0,0,0,0,0,0,0,0,0,0,0,0,0,0,0,0,0,0,0,0,0,0,0,0,0],"id":27,"left_children":[1,3,5,7,9,-1,-1,11,-1,13,-1,15,17,-1,-1,19,21,23,-1,-1,-1,-1,-1,-1,-1],"loss_changes":[2.343716E-1,5.597339E-1,5.357638E-2,5.079974E-1,6.718611E-1,0E0,0E0,5.7816815E-1,0E0,4.1114008E-1,0E0,6.031605E-1,4.35448E-1,0E0,0E0,4.673545E-1,6.384654E-1,3.0423582E-2,0E0,0E0,0E0,0E0,0E0,0E0,0E0],"parents":[2147483647,0,0,1,1,2,2,3,3,4,4,7,7,9,9,11,11,12,12,15,15,16,16,17,17],"right_children":[2,4,6,8,10,-1,-1,12,-1,14,-1,16,18,-1,-1,20,22,24,-1,-1,-1,-1,-1,-1,-1],"split_conditions":[5.9E1,5.6E1,5.5258698E1,5.5E1,1E0,-9.534993E-2,-8.172356E-3,9.671E1,-1.2520514E-1,1.754386E-2,-4.7621846E-2,3.74448E3,3E0,1.8000739E-3,1.9982514E-1,2E0,3.93288E3,3.0303031E-2,3.5403274E-2,1.832769E-2,-2.068203E-2,2.1646218E-1,1.0516225E-2,-4.938734E-2,-1.7908075E-1],"split_indices":[0,0,1,0,4,0,0,1,0,6,0,5,2,0,0,2,5,6,0,0,0,0,0,0,0],"split_type":[0,0,0,0,0,0,0,0,0,0,0,0,0,0,0,0,0,0,0,0,0,0,0,0,0],"sum_hessian":[1.2941377E2,1.2663284E2,2.7809293E0,1.20970375E2,5.662466E0,1.6840382E0,1.0968913E0,1.1907317E2,1.8972013E0,3.8880625E0,1.7744038E0,1.1505477E2,4.0184064E0,1.3059372E0,2.5821252E0,1.10340256E2,4.714515E0,2.8260233E0,1.1923828E0,6.222987E1,4.8110382E1,1.4667459E0,3.2477694E0,1.2813748E0,1.5446486E0],"tree_param":{"num_deleted":"0","num_feature":"7","num_nodes":"25","size_leaf_vector":"1"}},{"base_weights":[2.8012737E-3,-4.0175873E-3,2.694569E-1,-2.0938878E-1,1.037883E-2,-1.9144783E-3,1.2241099E-1,1.1384545E-1,-3.633838E-1,2.1749954E-1,-1.6404102E-3,-4.757097E-2,1.06246255E-1,-5.3793645E-1,-3.89128E-2,4.0203944E-1,1.408622E-2,-2.4130446E-1,9.640411E-3,-3.1458072E-2,-2.0231916E-1,1.0696476E-1,-1.22262605E-1,1.6445184E-1,1.9347528E-2,-1.21626936E-1,8.2455374E-2,-1.8133055E-1,1.3059712E-2,1.16647474E-1,-1.2224985E-3,-6.2305856E-2,6.064105E-2,-1.22442745E-1,4.223108E-3],"categories":[],"categories_nodes":[],"categories_segments":[],"categories_sizes":[],"default_left":[0,0,0,0,0,0,0,0,0,0,0,0,0,0,0,0,0,0,0,0,0,0,0,0,0,0,0,0,0,0,0,0,0,0,0],"id":28,"left_children":[1,3,5,7,9,-1,-1,11,13,15,17,-1,-1,19,21,23,25,27,29,-1,-1,-1,-1,-1,-1,-1,-1,-1,31,-1,33,-1,-1,-1,-1],"loss_changes":[2.3760225E-1,3.800876E-1,1.2714626E-1,4.6050745E-1,3.0008405E-1,0E0,0E0,2.8387967E-1,3.155955E-1,2.4250314E-1,3.1266978E-1,0E0,0E0,1.5299511E-1,6.054385E-1,1.3384122E-1,5.6880945E-1,4.8807108E-1,4.5600122E-1,0E0,0E0,0E0,0E0,0E0,0E0,0E0,0E0,0E0,2.104343E-1,0E0,6.812757E-1,0E0,0E0,0E0,0E0],"parents":[2147483647,0,0,1,1,2,2,3,3,4,4,7,7,8,8,9,9,10,10,13,13,14,14,15,15,16,16,17,17,18,18,28,28,30,30],"right_children":[2,4,6,8,10,-1,-1,12,14,16,18,-1,-1,20,22,24,26,28,30,-1,-1,-1,-1,-1,-1,-1,-1,-1,32,-1,34,-1,-1,-1,-1],"split_conditions":[5.546722E-1,7E0,3E0,1.1228E2,1E1,-1.9144783E-3,1.2241099E-1,1E0,7.563E1,4.223425E2,1.2E1,-4.757097E-2,1.06246255E-1,1E0,8.78553E1,2E0,1.314551E-1,2.28E1,2.8827E2,-3.1458072E-2,-2.0231916E-1,1.0696476E-1,-1.22262605E-1,1.6445184E-1,1.9347528E-2,-1.21626936E-1,8.2455374E-2,-1.8133055E-1,1.1E1,1.16647474E-1,3.5805E2,-6.2305856E-2,6.064105E-2,-1.22442745E-1,4.223108E-3],"split_indices":[6,0,0,5,0,0,0,3,1,5,0,0,0,2,1,2,6,1,5,0,0,0,0,0,0,0,0,0,0,0,5,0,0,0,0],"split_type":[0,0,0,0,0,0,0,0,0,0,0,0,0,0,0,0,0,0,0,0,0,0,0,0,0,0,0,0,0,0,0,0,0,0,0],"sum_hessian":[1.2907826E2,1.2682018E2,2.2580855E0,7.4204016E0,1.1939978E2,1.0740913E0,1.1839942E0,2.4785874E0,4.941814E0,5.6110916E0,1.1378869E2,1.3211102E0,1.1574773E0,2.7854588E0,2.1563551E0,2.4300473E0,3.1810443E0,4.1985564E0,1.0959013E2,1.0911086E0,1.6943504E0,1.0561246E0,1.1002307E0,1.2604005E0,1.1696469E0,1.0067217E0,2.1743226E0,1.1625866E0,3.0359695E0,2.0830946E0,1.0750704E2,1.3552761E0,1.6806935E0,2.9651961E0,1.0454184E2],"tree_param":{"num_deleted":"0","num_feature":"7","num_nodes":"35","size_leaf_vector":"1"}},{"base_weights":[8.886134E-4,1.915103E-2,-8.182645E-2,-3.090775E-2,9.82684E-2,2.1825228E-2,-2.6972324E-1,6.704093E-3,-2.2464396E-1,2.760438E-2,3.004672E-1,-1.2829556E-1,4.2606974E-1,-1.6072394E-1,-1.06636025E-1,-2.7205849E-2,5.966172E-1,-2.2511197E-2,4.598554E-1,9.940056E-2,-3.763748E-1,2.2693068E-1,-4.5818552E-2,8.93711E-2,-1.4643031E-1,3.6532253E-3,-2.6014012E-1,2.676225E-1,1.5716874E-3,2.3309736E-1,-1.1830487E-1,2.5365344E-1,-6.6701196E-2,-1.6025737E-1,1.7631501E-1,-5.708378E-2,-1.9774337E-1,-2.0769037E-1,1.470862E-1,-7.10265E-3,1.1430362E-1,-1.6463263E-1,1.3044167E-1,2.1720035E-1,2.7226424E-2,-1.7481992E-1,-9.614914E-3,-1.05559595E-1,6.211244E-2,-9.305842E-2,9.704638E-2,-1.3065965E-1,5.122951E-2],"categories":[],"categories_nodes":[],"categories_segments":[],"categories_sizes":[],"default_left":[0,0,0,0,0,0,0,0,0,0,0,0,0,0,0,0,0,0,0,0,0,0,0,0,0,0,0,0,0,0,0,0,0,0,0,0,0,0,0,0,0,0,0,0,0,0,0,0,0,0,0,0,0],"id":29,"left_children":[1,3,5,7,9,11,13,15,-1,17,-1,19,21,-1,23,25,27,29,31,33,35,-1,-1,37,-1,39,41,-1,-1,43,45,-1,-1,47,-1,49,-1,51,-1,-1,-1,-1,-1,-1,-1,-1,-1,-1,-1,-1,-1,-1,-1],"loss_changes":[1.9729373E-1,4.2660463E-1,4.6597105E-1,1.7942513E0,2.6330373E0,1.0347272E0,3.104912E-1,1.2955998E0,0E0,8.700919E-1,0E0,7.460436E-1,9.96033E-1,0E0,5.297425E-1,4.4255877E-1,6.103915E-1,9.2174155E-1,1.2850952E0,1.0238937E0,5.23297E-1,0E0,0E0,7.139873E-1,0E0,5.786447E-1,1.6829739E0,0E0,0E0,6.534335E-1,1.0719901E0,0E0,0E0,4.6504194E-1,0E0,4.8688042E-1,0E0,3.8952395E-1,0E0,0E0,0E0,0E0,0E0,0E0,0E0,0E0,0E0,0E0,0E0,0E0,0E0,0E0,0E0],"parents":[2147483647,0,0,1,1,2,2,3,3,4,4,5,5,6,6,7,7,9,9,11,11,12,12,14,14,15,15,16,16,17,17,18,18,19,19,20,20,23,23,25,25,26,26,29,29,30,30,33,33,35,35,37,37],"right_children":[2,4,6,8,10,12,14,16,-1,18,-1,20,22,-1,24,26,28,30,32,34,36,-1,-1,38,-1,40,42,-1,-1,44,46,-1,-1,48,-1,50,-1,52,-1,-1,-1,-1,-1,-1,-1,-1,-1,-1,-1,-1,-1,-1,-1],"split_conditions":[3E0,4.987471E-2,2.0924912E3,4.761905E-2,3.8E1,1.47994E3,2.3320938E3,4.347826E-2,-2.2464396E-1,2.11855E3,3.004672E-1,3.91E1,3.3E1,-1.6072394E-1,5.3E1,3.846154E-2,1.6593104E3,3.343E1,2.4996968E3,3.137E1,1.4E1,2.2693068E-1,-4.5818552E-2,4.9E1,-1.4643031E-1,3.6228158E-2,7.838909E1,2.676225E-1,1.5716874E-3,5.8792315E-2,4.241E1,2.5365344E-1,-6.6701196E-2,4E0,1.7631501E-1,9E0,-1.9774337E-1,7.505E1,1.470862E-1,-7.10265E-3,1.1430362E-1,-1.6463263E-1,1.3044167E-1,2.1720035E-1,2.7226424E-2,-1.7481992E-1,-9.614914E-3,-1.05559595E-1,6.211244E-2,-9.305842E-2,9.704638E-2,-1.3065965E-1,5.122951E-2],"split_indices":[2,6,5,6,0,5,5,6,0,5,0,1,0,0,0,6,5,1,5,1,0,0,0,0,0,6,1,0,0,6,1,0,0,2,0,0,0,1,0,0,0,0,0,0,0,0,0,0,0,0,0,0,0],"split_type":[0,0,0,0,0,0,0,0,0,0,0,0,0,0,0,0,0,0,0,0,0,0,0,0,0,0,0,0,0,0,0,0,0,0,0,0,0,0,0,0,0,0,0,0,0,0,0,0,0,0,0,0,0],"sum_hessian":[1.2857082E2,1.0594745E2,2.2623358E1,6.526354E1,4.0683907E1,1.5149893E1,7.4734654E0,6.295588E1,2.3076653E0,3.8687923E1,1.9959848E0,1.1545113E1,3.6047797E0,1.9719105E0,5.501555E0,6.0435738E1,2.5201423E0,3.5517868E1,3.170053E0,6.3323617E0,5.2127514E0,2.0995142E0,1.5052656E0,4.140017E0,1.3615378E0,5.4235012E1,6.200725E0,1.3414664E0,1.1786759E0,9.291584E0,2.6226284E1,1.8722394E0,1.2978137E0,4.5726895E0,1.7596722E0,3.0127552E0,2.199996E0,2.6548498E0,1.4851674E0,5.1446465E1,2.7885473E0,4.529711E0,1.6710143E0,1.1700498E0,8.121534E0,3.2063336E0,2.301995E1,3.0326648E0,1.5400245E0,1.920435E0,1.0923202E0,1.5630376E0,1.0918121E0],"tree_param":{"num_deleted":"0","num_feature":"7","num_nodes":"53","size_leaf_vector":"1"}},{"base_weights":[4.2104516E-3,-2.343094E-3,2.5943533E-1,3.4130588E-3,-1.0303173E-1,3.3833564E-3,1.12052396E-1,1.2672225E-1,-6.4983047E-3,-1.5350032E-1,4.8487494E-3,2.1096414E-1,-7.704307E-3,3.2953399E-3,1.6285327E-1,-1.1718527E-1,1.8909117E-3],"categories":[],"categories_nodes":[],"categories_segments":[],"categories_sizes":[],"default_left":[0,0,0,0,0,0,0,0,0,0,0,0,0,0,0,0,0],"id":30,"left_children":[1,3,5,7,-1,-1,-1,-1,9,-1,11,13,15,-1,-1,-1,-1],"loss_changes":[2.1478674E-1,2.4823609E-1,8.6787224E-2,5.2075166E-1,0E0,0E0,0E0,0E0,7.0661646E-1,0E0,3.15037E-1,4.5789033E-1,6.2003756E-1,0E0,0E0,0E0,0E0],"parents":[2147483647,0,0,1,1,2,2,3,3,8,8,10,10,11,11,12,12],"right_children":[2,4,6,8,-1,-1,-1,-1,10,-1,12,14,16,-1,-1,-1,-1],"split_conditions":[5.546722E-1,5E-1,3E0,1.1228E2,-1.0303173E-1,3.3833564E-3,1.12052396E-1,1.2672225E-1,1.6182E2,-1.5350032E-1,1.5849698E1,4.347826E-2,1.728E1,3.2953399E-3,1.6285327E-1,-1.1718527E-1,1.8909117E-3],"split_indices":[6,6,0,5,0,0,0,0,5,0,1,6,1,0,0,0,0],"split_type":[0,0,0,0,0,0,0,0,0,0,0,0,0,0,0,0,0],"sum_hessian":[1.2704931E2,1.2483469E2,2.2146275E0,1.23736565E2,1.0981178E0,1.0434773E0,1.1711501E0,1.8976244E0,1.2183894E2,1.7079656E0,1.20130974E2,5.9889746E0,1.14142E2,4.3817677E0,1.6072067E0,3.0792465E0,1.1106275E2],"tree_param":{"num_deleted":"0","num_feature":"7","num_nodes":"17","size_leaf_vector":"1"}},{"base_weights":[3.1736633E-3,5.2444033E-2,-2.8818224E-2,1.5028571E-2,2.1458831E-1,-2.7153084E-1,3.1675159E-3,6.2139526E-2,-1.6496505E-1,-1.14607275E-1,-1.8834354E-1,3.4151477E-1,-3.353819E-2,-1.7376963E-2,3.082027E-1,-2.3148371E-1,3.8492795E-2,1.1033511E-1,-3.692201E-1,9.552536E-2,1.6176222E-1,-1.6360317E-1,3.2116037E-2,6.2401675E-2,-2.4382289E-1,5.564142E-1,-8.9647956E-2,2.2038232E-1,-1.6391186E-1,-1.0869843E-1,3.4541172E-1,-1.6762456E-1,-1.5533348E-2,3.7406754E-1,-1.0315306E-1,-2.2842425E-1,2.6740018E-1,4.4590837E-1,-2.7602179E-2,-1.2851328E-3,8.197179E-2,2.5131163E-1,3.99936E-2,-1.2598413E-1,9.18836E-2,7.02456E-2,-1.08945414E-1,1.437542E-2,1.4764215E-1,-1.0137841E-2,1.7818415E-1,-1.1743125E-1,1.3580512E-2,1.9261704E-1,-7.2703324E-2,2.369584E-1,-6.0377914E-2,-1.639618E-1,5.6442237E-3],"categories":[],"categories_nodes":[],"categories_segments":[],"categories_sizes":[],"default_left":[0,0,0,0,0,0,0,0,0,0,0,0,0,0,0,0,0,0,0,0,0,0,0,0,0,0,0,0,0,0,0,0,0,0,0,0,0,0,0,0,0,0,0,0,0,0,0,0,0,0,0,0,0,0,0,0,0,0,0],"id":31,"left_children":[1,3,5,7,-1,9,11,13,15,17,-1,19,21,23,25,-1,27,29,31,33,-1,35,37,39,-1,41,43,-1,45,-1,47,-1,-1,49,-1,51,53,55,57,-1,-1,-1,-1,-1,-1,-1,-1,-1,-1,-1,-1,-1,-1,-1,-1,-1,-1,-1,-1],"loss_changes":[2.0309612E-1,1.2467207E0,6.0784423E-1,4.258829E-1,0E0,4.3768334E-1,8.8167816E-1,7.796582E-1,1.318453E0,4.7323808E-1,0E0,2.863307E-1,5.5282414E-1,2.0085807E0,1.0095925E0,0E0,1.3562914E0,6.5618956E-1,1.9802308E-1,6.5618E-1,0E0,6.666211E-1,1.0859745E0,4.084991E-1,0E0,6.1711025E-1,7.2952783E-1,0E0,6.8883467E-1,0E0,1.3809153E-1,0E0,0E0,2.996189E-1,0E0,8.8237226E-1,7.847357E-1,1.3917001E0,9.4753724E-1,0E0,0E0,0E0,0E0,0E0,0E0,0E0,0E0,0E0,0E0,0E0,0E0,0E0,0E0,0E0,0E0,0E0,0E0,0E0,0E0],"parents":[2147483647,0,0,1,1,2,2,3,3,5,5,6,6,7,7,8,8,9,9,11,11,12,12,13,13,14,14,16,16,17,17,18,18,19,19,21,21,22,22,23,23,25,25,26,26,28,28,30,30,33,33,35,35,36,36,37,37,38,38],"right_children":[2,4,6,8,-1,10,12,14,16,18,-1,20,22,24,26,-1,28,30,32,34,-1,36,38,40,-1,42,44,-1,46,-1,48,-1,-1,50,-1,52,54,56,58,-1,-1,-1,-1,-1,-1,-1,-1,-1,-1,-1,-1,-1,-1,-1,-1,-1,-1,-1,-1],"split_conditions":[4.627E1,4.492E1,5.172659E1,1.3534E3,2.1458831E-1,5.124E1,5.594E1,9.5238E2,1.52172E3,1.66632E3,-1.8834354E-1,5.389E1,6.905E1,8.4711E2,4.6E1,-2.3148371E-1,1.64256E3,1.5E1,1E0,5.329E1,1.6176222E-1,1.5E-1,7.229E1,2.986E1,-2.4382289E-1,1.131E3,5E1,2.2038232E-1,4.9E1,-1.0869843E-1,2.4E1,-1.6762456E-1,-1.5533348E-2,1.9459E3,-1.0315306E-1,2.41572E3,2.2222222E-1,2.77487E3,7.381E1,-1.2851328E-3,8.197179E-2,2.5131163E-1,3.99936E-2,-1.2598413E-1,9.18836E-2,7.02456E-2,-1.08945414E-1,1.437542E-2,1.4764215E-1,-1.0137841E-2,1.7818415E-1,-1.1743125E-1,1.3580512E-2,1.9261704E-1,-7.2703324E-2,2.369584E-1,-6.0377914E-2,-1.639618E-1,5.6442237E-3],"split_indices":[1,1,1,5,0,1,1,5,5,5,0,1,1,5,0,0,5,0,3,1,0,6,1,1,0,5,0,0,0,0,0,0,0,5,0,5,6,5,1,0,0,0,0,0,0,0,0,0,0,0,0,0,0,0,0,0,0,0,0],"split_type":[0,0,0,0,0,0,0,0,0,0,0,0,0,0,0,0,0,0,0,0,0,0,0,0,0,0,0,0,0,0,0,0,0,0,0,0,0,0,0,0,0,0,0,0,0,0,0,0,0,0,0,0,0,0,0,0,0,0,0],"sum_hessian":[1.2688865E2,4.9702717E1,7.718593E1,4.8015114E1,1.6876041E0,8.115461E0,6.907047E1,3.857372E1,9.441394E0,6.551526E0,1.5639358E0,5.947083E0,6.3123386E1,2.9855238E1,8.718483E0,1.6698711E0,7.771523E0,3.7792943E0,2.7722318E0,3.3107324E0,2.6363506E0,2.0674353E1,4.244903E1,2.7971153E1,1.884084E0,5.123486E0,3.5949965E0,1.1583381E0,6.613185E0,1.0754973E0,2.703797E0,1.2598702E0,1.5123615E0,2.1171622E0,1.1935701E0,1.8380083E1,2.2942693E0,4.537999E0,3.7911034E1,